-0.110621 0.0279641 0.0614873 -0.0268086 0.00745683 0.0496497 0.000462943 0.00850515 -0.00044764 0.0627728 -0.105563 0.0696902 -0.0484866 -0.0492671 0.0465201 0.0142135 0.121815 0.0721694 0.115763 0.039113 0.0147568 -0.00172552 -0.0096606 0.0360752 -0.0923783 -0.0823618 -0.0705013 -0.11362 0.0600105 -0.0318589 -0.0960971 -0.0958446 -0.0205799 -0.0986529 -0.0557101 0.0098672 -0.00794656 0.10583 -0.0765387 0.102035 -0.0292879 -0.124111 0.0803264 -0.041508 -0.0239392 -0.0302979 -0.0414162 -0.11864 -0.0801045 0.0777707 0.0776712 -0.0844126 -0.00219994 0.0010751 -0.00317939 0.10909 0.00278149 -0.0763398 0.0986223 -0.105234 0.0193939 0.0540496 0.000822585 0.0657035 0.108577 0.0349274 -0.0803341 -0.0926078 -0.0216895 -0.100061 -0.100451 -0.0209855 0.0112292 -0.0317671 -0.0273672 0.0987523 -0.119573 -0.0489381 -0.0757888 0.0163331 -0.114378 -0.0733402 -0.0275203 0.100627 -0.0128744 -0.0526646 0.0353023 -0.00252897 -0.0851931 -0.0679379 -0.104223 0.10769 0.0933883 0.118846 -0.0549066 0.0793852 -0.0087041 -0.0309636 0.0502466 -0.0832954 -0.097023 0.0604772 -0.0135478 -0.094957 0.013785 0.0975663 -0.0153843 -0.0597886 -0.000960321 0.0825685 0.0696902 -0.0224241 0.0272601 0.032846 -7.26936e-05 -0.0677007 -0.100099 0.0228526 -0.0127979 -0.00575045 -0.0444005 -0.0525651 -0.00327886 -0.0603701 -0.0300148 0.0329455 0.0628187 -0.0928068 -0.070333 -0.0116042 -0.0793164 -0.0325476 -0.0856063 0.0797908 -0.110712 -0.0501471 -0.04274 0.0138309 0.051578 0.115763 -0.125083 -0.0827215 -0.0820328 -0.120117 -0.0622142 0.0502695 -0.118204 -0.0681522 0.115602 0.0294715 -0.117163 -0.0541491 0.0217507 -0.0334735 0.0977576 -0.0117802 0.0502007 0.0350192 0.0767453 0.0674405 0.0612424 0.119145 -0.108654 -0.0812064 0.121701 0.0692234 -0.0364578 -0.0127214 -0.0932735 -0.0394038 -0.118418 -0.0658948 0.0148639 -0.121984 -0.106925 -0.107124 0.0485938 -0.12421 0.115587 0.0485325 -0.0284308 -0.113436 -0.0986299 0.00426597 0.0960742 -0.021743 -0.0812906 0.0283773 -0.0563375 -0.0201973 0.109251 -0.120407 0.108287 -0.121907 0.0953855 0.0608139 0.093396 0.0069212 -0.0386462 -0.053996 0.0134483 -0.0771279 -0.0415922 -0.112893 -0.116451 0.00364616 0.0664611 -0.00971416 0.125037 -0.100107 -0.0313998 -0.0896465 0.0196617 -0.118219 0.120117 -0.125144 -0.00318704 -0.0362818 -0.0448826 0.0152312 -0.0269617 0.0903122 -0.0698968 -0.028339 -0.120744 0.0279488 -0.0627652 0.111623 0.110995 -0.0114282 0.0344759 0.0603013 0.0134024 -0.122183 0.0371388 -0.105364 -0.0905801 -0.050897 -0.0937786 -0.0500247 0.018667 0.00376094 -0.014642 0.0777248 0.0203504 -0.0811605 0.0130657 0.0700728 -0.120851 -0.103841 -0.0261888 0.0841295 -0.0796607 -0.0451351 -0.0405745 0.0235489 0.0210238 0.0698432 0.0985228 -0.030451 -0.0846115 -0.0233499 -0.0179477 0.117813 -0.0204958 0.04551 -0.103642 0.0567814 -0.0197306 -0.0116807 0.0322798 0.106106 -0.0820328 0.0607451 -0.0183379 0.0376055 -0.054348 0.018973 -0.0447295 -0.0965103 -0.015545 -0.00828324 0.0158587 0.04916 0.0298847 0.0315452 0.0139916 0.0207483 0.0129433 -0.00141179 0.0307035 -0.036144 -0.0395185 0.0511572 0.00285801 -0.0389676 0.0708457 -0.114041 0.0903734 -0.0983697 -0.0552816 0.0112905 -0.0402455 0.0955003 0.0976122 -0.0636452 0.0475531 -0.0413474 -0.0208478 0.0702182 -0.030803 -0.00275088 -0.111921 -0.0427477 -0.104889 -0.0953702 0.00532194 -0.107001 0.0594672 0.00360025 -0.0779543 0.0518841 -0.0390518 0.102571 -0.0912075 -0.0918426 -0.0569497 -0.0112216 0.0312391 0.105042 -0.0567048 -0.110291 0.113674 0.0255537 0.104851 0.111279 -0.0844814 -0.0102728 0.0458544 -0.0610205 0.0145196 0.0781533 -0.024536 0.0253854 0.00378389 -0.00677581 -0.0496115 0.0758041 0.0126066 -0.0183609 -0.0403603 0.0672951 -0.0984463 -0.0418906 -0.110812 0.0724526 -0.11486 0.113475 0.0484254 -0.0974974 -0.0585719 -0.103627 0.0564523 -0.0904576 0.00665338 -0.0945667 0.0296858 -0.100046 0.069476 0.0707232 0.113628 0.00620191 -0.0937556 -0.0848564 0.0435358 -0.0325017 0.0792934 0.041554 0.042564 -0.0855298 -0.072223 0.10518 -0.0220644 0.111133 -0.0598574 -0.0606992 0.0896236 -0.00878062 -0.0248344 0.0967552 -0.0385927 -0.0400159 -0.0316523 -0.0498487 0.0517081 0.0298771 0.106955 -0.106481 -0.0532461 0.0151011 0.0897766 0.0213222 -0.0900368 0.117408 -0.0288747 0.0725597 -0.109702 0.108799 -0.0514709 0.0363124 0.0559779 -0.0444158 0.0891721 -0.0618623 0.0251405 0.0892563 0.112687 -0.0411025 0.107713 -0.0939316 -0.0254007 -0.0933348 -0.0252094 -0.027635 0.114393 -0.0542026 0.0759342 -0.00180969 0.106488 0.0992038 -0.0333511 0.0621836 0.0943831 -0.0735544 0.120407 -0.0915748 -0.0147109 -0.0943831 -0.117025 0.0371235 0.0330832 -0.0962731 -0.101476 -0.0886135 0.0437424 0.0247885 -0.0897766 0.0106783 0.0787501 -0.0274591 0.0139151 0.0444158 -0.109281 -0.0398476 0.0287752 0.0563988 -0.0333434 0.0563605 0.0487391 -0.00705893 -0.0912993 -0.00280444 0.0981478 -0.0477367 0.0367103 0.113903 -0.0504073 -0.0524886 -0.0635763 -0.10997 0.0362052 -0.103366 0.0885217 0.0636758 0.00304165 -0.0749471 0.0514556 0.0239774 0.0924701 -0.060768 0.0855986 -0.0720088 -0.0977958 0.0616786 -0.0576307 0.0394726 -0.0383095 -0.117821 -0.0493513 -0.0544092 -0.0867464 0.122045 -0.120629 -0.0680297 -0.00261314 -0.0980331 -0.0436276 -0.0992956 -0.12066 -0.0197918 0.0238091 0.117553 0.0120174 -0.113658 -0.0433904 -0.0747482 0.0736845 0.0692387 0.0823925 -0.0371847 -0.073631 -0.00637026 -0.0348126 0.0159582 -0.109947 0.0442321 0.0584801 0.0444081 0.0114818 -0.073103 0.0765923 0.0216053 -0.11313 -0.0785818 0.0943372 0.11476 -0.0291195 -0.0679532 -0.0208478 0.100466 -0.0864786 -0.0677466 -0.0939775 0.0452728 0.122795 0.00936982 0.0667672 -0.107345 0.0888431 0.0953625 0.0674329 -0.0140452 -0.081765 0.0966634 -0.113582 -0.0822088 0.118441 0.0079236 -0.121938 -0.007717 0.0634845 -0.0296552 -0.0605767 -0.0675247 -0.0402837 0.110177 0.0887895 0.122152 -0.0274744 0.118119 0.0663157 0.0145425 0.0794847 -0.0903888 -0.0452881 1.14779e-05 0.0775717 0.0729499 -0.0683435 0.111523 0.0504073 -0.0649689 -0.101706 0.104851 -0.0289588 -0.024735 0.104361 0.0592606 -0.00037112 -0.101897 0.00391398 0.017963 -0.0988059 0.0979336 -0.027505 0.070662 -0.105295 0.0831883 0.110965 -0.10101 0.105119 0.0891491 0.0145579 -0.0605997 -0.0733785 -0.052282 0.000868497 -0.075345 -0.0149864 -0.0608369 -0.0976505 -0.0325706 -0.0162107 -0.0491677 -0.0710293 -0.0530013 -0.11411 -0.0873356 -0.0426482 0.106068 -0.0276427 0.0910545 -0.00331712 0.123093 -0.0415769 -0.0515857 -0.0568885 0.0685654 -0.0202509 -0.0829587 0.11916 0.00911731 0.118823 0.0304357 -0.0424798 -0.0870831 0.030803 0.0115124 0.0870295 -0.120369 0.102647 0.0264184 -0.0853691 0.0918197 -0.0620995 -0.0666447 -0.0271683 0.00965294 0.114248 -0.00377624 0.123591 -0.0331904 -0.00261314 -0.110414 -0.120675 -0.0746104 0.0656882 -0.0323716 -0.0444617 0.0522208 0.0247579 0.119283 0.0325246 -0.119749 -0.087305 -0.0686113 0.115013 -0.0348355 -0.0115812 -0.00461796 -0.0341775 0.0428931 0.0846804 0.0557483 -0.00951521 0.105333 -0.014841 0.104124 0.0547842 -0.0953472 0.00277383 0.117408 0.113781 0.0437348 0.0589775 0.0304433 -0.113643 -0.0876953 -0.0483948 -0.0959594 -0.0505297 -0.110904 0.113911 0.123958 -0.0182537 0.0605538 0.0361517 0.0869989 0.04085 0.118364 -0.0791404 -0.0260358 0.102915 -0.0422962 -0.0150935 0.0537971 -0.0126755 0.122259 -0.0292573 0.112687 -0.0901745 0.113582 0.0499329 -0.0282089 0.026296 -0.0209549 -0.0858282 -0.0738758 -0.0376209 -0.0633773 -0.00483221 0.0624438 -0.0491906 -0.0596968 0.104139 0.0468338 0.0583424 -0.0379269 -0.0662162 0.0949111 -0.123514 -0.114584 -0.0269617 -0.048655 -0.0781609 0.0370852 0.00601061 0.102027 0.0995252 -0.0016796 0.0140911 0.0395415 -0.0140069 -0.0181466 -0.0998695 0.0620153 0.0457013 -0.0914294 0.0957298 -0.0784134 0.0128209 -0.0313539 -0.027987 0.0502619 0.0716262 0.0576537 -0.124103 -0.0668513 0.063913 0.117301 -0.0487238 0.109067 0.100344 0.0250946 0.0626045 0.111852 0.0606532 0.059383 -0.00190916 0.0860424 0.106152 0.0828745 0.00739562 -0.105333 -0.0600717 -0.0246202 0.0988518 -0.0573859 -0.0587173 -0.0396792 -0.0937862 0.0405286 -0.0960895 0.0962195 0.0574088 0.0312468 0.00873471 0.0850859 0.0853538 0.00835976 0.0116272 -0.0773957 0.0817038 0.0875499 0.0232964 0.0346289 -0.120009 0.0678155 0.115265 -0.0795383 -0.0399088 -0.0537359 0.123208 -0.0347896 0.117109 0.118999 -0.109419 -0.0746028 0.0867847 -0.0248115 0.069981 0.00371503 -0.0745951 -0.0146344 -0.035792 0.0232505 0.0740136 -0.0267398 0.0465966 0.10948 -0.0922482 -0.0740748 -0.124547 -0.105172 -0.0344453 0.0432603 0.0453952 -0.0951024 -0.108631 0.113238 -0.106848 -0.115533 0.0398476 -0.0712665 0.102157 -0.0209625 0.0317059 0.0799974 -0.0823006 0.0313998 -0.0450662 0.0747099 0.122718 -0.0996476 0.00436544 -0.110506 -0.0184068 0.0726439 -0.00663807 -0.100987 0.0543939 -0.0408729 0.0462676 0.0210008 0.0916896 -0.0838769 -0.106335 0.043972 -0.0993339 0.12043 0.08491 -0.0298541 -0.0851701 0.0823465 0.0326088 0.0835709 0.0806325 -0.0512949 -0.0353559 0.0775564 0.0618852 0.108952 -0.0567737 -0.0397404 -0.123392 0.00545967 0.0176645 0.0665223 -0.044477 -0.067364 -0.0641425 -0.113934 -0.0124995 -0.0440561 -0.026097 0.0567431 0.0544781 -0.0138156 0.0550061 -0.038432 -0.089218 -0.095791 -0.0291654 0.0422579 -0.0905801 0.0103569 -0.11753 0.01429 -0.0682516 -0.0584954 -0.0978571 0.0903122 0.073807 0.0911386 -0.0610511 -0.0927532 -0.0528253 -0.0857823 0.11411 0.0073191 0.0969924 -0.0895394 -0.0799438 0.0668207 -0.112518 -0.0874274 -0.0606303 -0.02348 0.121746 -0.0284921 0.0352028 -0.0265026 -0.0178405 -0.0241687 0.0858129 -0.0894476 0.0683511 0.0344989 -0.066836 -0.119275 0.116268 0.0168764 0.104683 0.0263725 -0.0843208 0.0285839 -0.0217124 -0.00481691 0.0331827 -0.0338025 -0.0354477 -0.115548 0.0763704 -0.0705778 0.113383 -0.123667 -0.117898 -0.11548 -0.0358303 -0.0960589 0.110774 0.106848 0.0702488 0.0613419 0.107384 0.0440868 -0.0129203 0.0884452 0.0423727 -0.113903 -0.0749318 -0.102441 -0.0725444 -0.0243217 0.104017 -0.0259134 0.0120404 0.0894552 -0.00444196 0.107713 -0.0804336 -0.00835976 0.0155526 0.0507057 0.026296 0.0303438 0.0799132 0.0581817 -0.0654357 -0.0805254 0.0932735 -0.107927 0.0503767 -0.00770935 0.0435205 0.0107854 0.114508 0.0606762 0.00758692 0.015874 -0.0554346 -0.0845044 -0.00180969 0.0835862 -0.00152657 0.112419 -0.043092 -0.0487391 -0.00396754 0.0579674 0.0739447 -0.0674405 -0.0210391 0.0637064 -0.0150246 0.0361287 0.0402608 0.120859 0.0340933 -0.0936408 0.0942683 0.0572864 -0.106274 -0.0765387 -0.0697744 0.0976581 -0.0127137 -0.0868995 -0.0822471 -0.0305275 0.00231472 0.0652138 0.0995481 0.0890803 -0.0600717 0.0109691 0.0456937 -0.0384396 -0.00566627 -0.0948192 -0.0369169 0.0865934 -0.0559549 -0.0354553 -0.0820405 
-0.003034 0.115663 0.0524656 -0.0781762 -0.0246278 0.0884987 0.0234265 -0.00467152 0.0792399 -0.041003 -0.0898455 -0.0484713 0.00735736 0.0826832 -0.085591 0.0190419 -0.0427553 0.100482 0.0368327 0.0405592 -0.0106936 -0.062704 0.0589392 0.12245 0.0526723 0.0693153 -0.0366261 -0.0305504 -0.0561003 -0.0131958 0.0010904 0.0308106 0.0996476 -0.0782527 -0.00980598 -0.0631707 -0.0126602 0.00309522 0.0638059 0.110269 0.00951521 -0.09687 -0.0556106 0.0255843 -0.0751843 -0.092493 -0.0350574 0.00350842 -0.0478286 -0.0466502 -0.0886594 0.0138539 0.0683664 0.0754368 -0.0906413 0.117507 -0.0954543 0.0583959 -0.0679226 0.0322109 0.0174197 -0.020182 -0.105501 -0.0542409 -0.0800892 -0.0561845 -0.0799668 0.0612348 -0.0845044 -0.0625203 -0.0124689 -0.00514594 0.115189 0.115885 0.0479127 0.0245207 -0.0797525 -0.0593601 0.069782 0.0439643 -0.125366 -0.0121016 0.100283 -0.0241993 -0.106963 0.0869071 0.0511572 0.00582697 0.0310784 0.112335 0.0485096 -0.121463 0.0600487 0.100313 0.0533686 -0.12128 0.00105214 -0.00624017 0.0928909 -0.0189501 -0.113138 -0.0506215 0.0602171 0.0432374 -0.0967093 0.00757161 -0.078819 0.0320043 -0.0693459 0.0576384 0.0381106 -0.102066 -0.112128 -0.0976122 -0.0582735 0.0943066 -0.100145 0.103864 0.0251558 0.0993033 -0.0646093 -0.0960589 -0.0221103 -0.0513867 -0.0578297 -0.0778319 -0.0617857 -0.118954 -0.124448 -0.0930287 -0.063033 0.0953549 -0.104736 -0.00535254 0.100857 -0.0164249 -0.124019 0.0149558 -0.0536287 0.0925543 0.0105788 0.0321803 -0.0152771 -0.0893787 -0.103405 -0.0799209 -0.0430614 -0.00337069 -0.109335 -0.0941229 -0.0715037 0.0438113 0.115709 -0.118265 0.0671115 -0.108738 -0.0975204 -0.0796454 0.0673487 0.0902893 0.0710523 0.0438189 0.0636069 0.0118108 0.0520448 -0.0727051 -0.016731 -0.119068 0.0260894 0.0968394 -0.0663463 -0.0392507 0.0813671 0.0375826 0.0792399 0.0119179 0.0483719 0.0369934 0.0951559 0.0230668 0.0355778 -0.0771356 -0.0868076 0.0728811 0.0594748 0.0162795 0.0910927 0.0683205 0.0464512 -0.0335041 0.0109767 -0.0220262 0.104361 0.0359757 0.0107089 0.0511342 0.0846115 0.000937365 -0.113115 -0.113421 0.0878866 -0.015193 0.124157 0.104216 -0.0688561 -0.105471 0.044653 -0.0328001 -0.0185063 0.0219114 -0.0156215 -0.0267398 0.120767 -0.0185981 -0.0646552 0.00475569 -0.00148065 0.050897 0.00496229 0.0502389 0.0956074 0.0810993 -0.104369 0.104774 -0.0140528 0.0400924 -0.00216168 -0.00663807 0.0886518 0.116589 0.0459768 -0.0127826 0.0385314 -0.0646017 -0.0637217 -0.0515551 -0.0329455 0.0740748 -0.0904347 -0.121249 0.07862 -0.0821246 -0.0656959 0.109159 0.0499482 0.0569344 0.00590349 -0.00536785 -0.0939163 0.00314878 -0.055932 0.120515 -0.110988 -0.067915 -0.0973061 0.114607 -0.0308106 -0.0144201 -0.0766764 0.0808621 0.0266403 0.0733938 -0.00255193 0.00503116 0.0981019 -0.0220568 -0.0284308 -0.117285 -0.0384243 -0.0575312 0.00813786 -0.064946 -0.0376515 0.0421661 -0.0666524 -0.0986988 0.0950947 0.0230592 -0.0600564 0.0331445 -0.00167195 -0.0858741 -0.0267627 0.0219649 -0.11525 0.0884375 0.0176569 -0.011696 0.0488769 0.0761102 0.116451 0.015323 -0.0214217 0.0701264 0.0852696 0.099112 -0.0226536 -0.0854762 0.00885714 0.00637026 0.0554193 0.017764 -0.0228067 -0.0906872 -0.00033286 -0.0166545 -0.100574 0.0347514 -0.106496 -0.0977576 0.108868 -0.0536364 -0.0179171 0.0991273 0.086777 -0.0402608 -0.0937939 0.0143436 0.0301219 0.0436353 -0.0387686 0.037376 0.0837469 -0.0392584 -0.10873 -0.0470557 -0.0439567 0.0132723 -0.119336 0.0722307 0.00720432 -0.1219 0.0053908 -0.0360522 0.0098519 -0.088361 0.0482571 0.105723 -0.0693306 -0.0983009 -0.0477673 0.116566 -0.0640507 -0.102678 0.0578373 -0.105953 -0.0422656 0.0997854 -0.105693 0.0750772 0.0352794 -0.0676548 -0.0638747 0.120055 0.013456 0.0419366 0.0797984 -0.032364 0.0634309 0.078995 0.00462561 0.0494049 0.105869 0.0203963 -0.0634539 0.0953778 0.103366 -0.112373 -0.0420513 0.0448596 0.0546847 0.108853 -0.107093 -0.0167157 -0.0977117 -0.115518 -0.0832495 -0.0880549 -0.0591458 0.0674023 -0.0924701 0.0325629 -0.0675706 -0.106152 -0.0551515 0.096847 0.0232964 0.0938092 -0.0261888 0.00738031 -0.0869913 -0.0382636 0.0364731 -0.0305811 0.122856 -0.0864021 0.0914906 0.12304 0.0590922 0.11978 0.0722307 -0.0386539 -0.0221792 -0.0299459 -0.0438419 -0.0285074 0.0423574 -0.00749509 -0.00562036 0.0371923 0.0696213 -0.0498028 0.121846 0.0483565 -0.0735468 0.0030187 -0.0491524 0.0147109 -0.090274 -0.0879095 0.123453 0.114232 0.0681369 -0.0853691 -0.0936332 -0.020886 0.0563911 0.00180969 0.0781303 -0.0931817 -0.016027 -0.0261582 -0.0254772 0.0392431 0.0881238 0.0136396 -0.00131996 -0.0530395 -0.0560238 -0.109236 -0.0337872 -0.07308 0.0562534 0.0473159 0.0785818 -0.0686036 0.0263648 -0.0805713 -0.0902587 -0.0559014 -0.0998389 0.00553619 -0.0572787 -0.0223628 -0.106672 0.02625 0.0380953 -0.00187856 0.08491 -0.0622295 0.123399 -0.0430614 0.0398017 -0.0952937 -0.00736501 -0.0153383 -0.0490988 -0.0234188 -0.00529133 -0.075697 0.00205455 0.0870448 0.00138883 0.0139763 0.043949 0.117278 -0.0619464 -0.109741 0.0452575 -0.109672 0.0200596 -0.0210161 -0.0992421 0.0915136 -0.0339326 -0.0625892 0.0616633 -0.0301143 0.0954084 -0.030428 0.0656117 0.0872361 0.0702718 -0.0704401 -0.0582582 -0.0480122 -0.0549296 0.0286834 0.0638977 0.0581281 0.0359986 0.067035 -0.0858741 -0.0783675 0.0104794 0.00251367 0.105356 -0.120599 -0.0218731 0.0316294 0.101844 -0.00158013 -0.0289971 -0.0138998 -0.00211577 0.0989513 0.0932965 -0.0192408 0.0473465 0.00650034 -0.0150552 0.110835 0.0358839 0.0245666 -0.120729 -0.11955 -0.0387151 -0.0092627 -0.106772 -0.0755593 0.102119 -0.0831117 0.0811146 -0.0646858 -0.0659484 0.0746793 -0.103795 0.121662 -0.00810725 0.0167922 0.0927073 0.10961 0.118915 -0.0888813 -0.0545699 0.106427 -0.0433292 -0.0824001 0.0909856 -0.00698241 -0.119061 -0.0182308 0.106994 -0.089417 -0.037376 0.0371923 -0.120821 0.0142518 -0.0767071 -0.0177946 -0.109335 -0.0499788 -0.0792169 -0.0755133 -0.0445994 -0.00958408 0.119795 0.0588627 0.0549449 0.122573 -0.114095 -0.0803188 0.0425105 0.0271683 0.0741436 -0.11649 0.118349 0.00296513 -0.0268163 -0.100482 0.0940005 0.00841333 -0.101438 0.0783063 0.101798 -0.116053 -0.00708189 0.122581 0.014841 -0.067739 -0.0417835 -0.0261659 -0.0168917 -0.0944443 0.0568273 -0.0880779 0.103221 0.0902434 0.0827138 -0.0254925 0.123009 0.0306576 -0.10075 -0.0579138 -0.0434899 0.0868995 1.91299e-05 0.0061407 -0.0952784 0.114454 -0.0777707 0.106833 0.103986 -0.0406969 -0.0102728 0.0634156 0.103236 0.0680756 -0.0473847 -0.0116807 0.097903 -0.113857 0.000615983 0.0992574 -0.0422809 0.116176 -0.0263113 -0.0782681 0.0835249 -0.00914792 -0.00953051 0.00814551 -0.0203733 -0.105172 0.0732331 -0.102655 0.0812294 -0.0119485 -0.0160959 -0.0457472 -0.0346213 -0.0998236 0.109595 0.0610205 -0.0106018 -0.07308 0.0987906 0.0413627 -0.0134024 0.0221639 0.0985228 0.0550061 0.0575312 0.0256914 0.0398935 0.0768218 0.095286 -0.0724679 0.0672416 -0.0427171 0.0742661 0.0986605 0.0655811 -0.0690015 -0.00234533 0.038233 -0.122818 0.0611277 0.0284921 0.0802193 -0.0827368 -0.00923209 -0.0496497 0.0966098 0.0182997 -0.0034013 -0.0130504 -0.109373 -0.0257756 -0.0481576 0.120851 0.0811222 0.115426 -0.048127 -0.059559 -0.102647 0.120323 -0.0381871 -0.0834484 -0.0375061 -0.0893634 -0.017236 0.120185 -0.0340015 0.0839305 0.101989 0.0406434 0.0553275 -0.0364042 -0.0823159 0.0291425 0.109672 -0.00285035 -0.0366797 0.00329417 -0.0406816 0.0638288 0.108906 -0.0505756 -0.0213222 -0.0791939 0.0714884 0.114867 0.10189 0.119091 0.0211691 -0.0891338 -0.0513179 0.0902663 -0.104308 -0.0626121 0.115235 0.00946165 -0.0768142 -0.117913 0.0462905 -0.123728 -0.0367485 -0.0356849 0.0655428 -0.0885064 -0.0849482 -0.0699121 -0.0284538 -0.0260128 0.0564829 0.00933156 0.021062 0.0896389 0.052634 0.0978647 -0.0332898 0.047446 0.0109155 0.0711976 -0.0350957 -0.0959823 0.0645022 -0.000149213 0.0238779 0.103673 0.106121 -0.0863944 0.0526646 0.046543 -0.0848717 -0.109465 -0.0611277 0.0803953 0.0460763 0.11802 -0.0389217 -0.0184068 -0.0393808 -0.0534987 -0.0394038 -0.0962119 0.0395185 0.0964415 0.0858818 0.119428 -0.055251 0.0186363 0.0299918 0.0164173 -0.0316064 0.0845427 0.0756052 -0.0535981 0.0950182 0.105218 0.116038 0.118624 -0.0960053 0.0946509 -0.0332975 -0.115051 0.0559779 0.0413933 -0.10655 -0.115464 -0.0350115 0.0910698 -0.0916284 0.113352 -0.0774263 -0.0904041 0.0189654 -0.102586 0.0186516 -0.116673 -0.0186593 0.106366 0.113811 -0.0828745 -0.00881888 0.0463135 -0.0223552 -0.00897957 0.110705 -0.100298 0.0867158 -0.00840568 0.116367 -0.102716 -0.0599034 -0.030076 0.0727586 0.0694453 -0.097528 0.0973291 0.0578603 0.0361823 -0.0778089 -0.0335959 0.0973826 -0.0750313 -0.119306 0.0188965 -0.0130504 0.120576 -0.0644639 -0.016203 0.0599799 -0.0668896 0.0969618 0.116237 0.072552 -0.0908785 -0.0921334 0.1204 0.0211768 0.0990737 -0.0256073 0.0426252 0.0649689 0.00890305 -0.0515474 0.0239545 0.108287 0.0712971 -0.0248727 -0.061449 -0.0234035 0.0839994 -0.0446836 0.0698815 -0.0106554 -0.0329225 -0.12444 0.0899373 0.104445 0.0416152 0.0687643 0.000860845 -0.054371 -0.0867464 -0.106343 0.0534681 -0.106971 -0.0668666 -0.0348279 0.0424033 0.0322339 0.0569344 -0.0955844 0.00726553 -0.0999307 0.0746257 3.82598e-06 -0.018797 0.0849788 0.0434899 0.00306461 0.0642726 0.0952401 -0.11776 -0.0625203 -0.0327083 0.0719705 -0.0324252 -0.0914218 0.0558249 0.00803073 -0.064066 0.0309024 0.0311779 0.0378351 0.0391512 -0.0343688 0.0360522 -0.0273519 1.91299e-05 -0.0596279 0.0711288 -0.108884 -0.0326012 -0.016027 0.00272792 -0.040475 0.0211615 0.00115162 0.0597886 0.0380264 0.0684812 -0.0730265 0.0882768 0.00529898 0.0922023 0.0787042 -0.0311779 0.104254 0.0853155 -0.058021 -0.0328154 -0.0153919 -0.116933 0.0221945 -0.0871596 0.00744918 -0.0181084 -0.0167463 -0.0127061 -0.0226536 0.0462905 -0.038761 0.011344 0.120782 -0.0459462 0.0303362 0.0130581 -0.0221562 0.0808315 -0.0555111 -0.0314993 0.0261506 -0.0925313 -0.100918 -0.00737266 -0.0513485 -0.0743809 -0.0770055 -0.12467 0.119436 -0.0928527 -0.101178 -0.00783178 -0.0315069 0.0173738 0.0783216 -0.0224241 0.0502925 0.0942606 0.0791633 -0.0519836 -0.0272984 0.0633314 -0.00903314 -0.0892486 0.0140146 0.0699886 0.0723454 -0.11095 0.0891415 0.0393196 -0.0911999 -0.0902204 -0.119198 0.00334773 0.0324711 -0.12307 0.0652827 -0.0972373 0.103504 -0.0186746 -0.0764851 -0.047622 -0.0862873 -0.0850094 0.0428854 0.0265867 0.0704248 0.0477827 -0.11577 -0.0937021 0.0961124 0.0765923 -0.0776023 0.0973444 0.078972 0.0599416 -0.109947 0.0470022 0.0996476 0.100551 0.0749548 -0.0121016 0.0590693 0.0782374 -0.0415387 -0.0237325 -0.100459 -0.0416917 -0.108141 0.0972755 0.0858894 0.0720088 0.098232 -0.0824537 0.0820787 -0.111852 -0.0616174 -0.0959517 -0.0441633 -0.0619388 
0.0028427 -0.119497 0.0883992 -0.103313 -0.0609899 -0.00132761 0.110108 -0.0105559 0.091636 0.0478821 0.0627193 -0.0187741 0.116398 0.0726898 -0.105769 -0.0915748 -0.113138 -0.122642 0.0364884 0.069958 0.116865 -0.114569 -0.0765387 -0.0752685 -0.00487047 -0.0698203 -0.0412785 -0.0690857 0.0359068 -0.0513408 0.0288211 -0.0433904 -0.0797372 -0.0926461 0.0711288 0.0524963 0.0332669 -0.0767836 0.055404 -0.0258139 -0.0179324 -0.0858741 0.123598 -0.0147721 0.0420284 -0.00681407 0.00239889 0.0807473 0.0694836 -0.0620536 -0.0626504 -0.0881467 0.0732484 -0.047951 0.00646973 0.0612424 -0.00779352 0.0472547 0.062176 -0.0706237 0.113084 0.0127137 -0.0823772 -0.0976505 -0.0736616 0.0575542 0.0202586 0.0520142 0.114003 0.0817573 -0.0278952 0.0305045 -0.0488922 -0.0817803 -0.0963343 -0.0679685 0.0799821 0.00520716 0.054899 0.0140834 -0.0696519 0.0680986 0.0599722 0.0537282 -0.00498525 0.0338331 0.0591382 -0.00751805 -0.0104947 0.00451848 0.119612 -0.112863 0.0963802 0.00335538 0.0888737 0.0678308 0.0837009 0.0805407 0.123277 0.0222634 -0.0117878 -0.0123235 0.00364616 -0.083831 -0.0894629 0.0113593 -0.0119103 0.00939278 0.105815 -0.0820634 0.0599952 0.122443 -0.0800663 0.107384 0.0707844 -0.070838 0.0143512 -0.0776406 -0.108118 -0.0262118 -0.0894323 -0.0313539 0.0697591 -0.0746487 0.0611506 -0.117446 0.0924701 -0.0144584 -0.022998 -0.0940081 0.0270458 -0.0429313 0.11323 -0.0385544 -0.121838 -0.1174 0.0463976 0.0742431 -0.0801122 0.0211156 -0.106787 0.0969082 0.112151 0.0597656 0.0107625 0.0755593 0.0985228 0.0922176 -0.089195 -0.0344912 -0.0972066 0.00190916 -0.0468185 0.035815 0.0628953 0.0319508 -0.0190955 -0.0821093 0.0659561 -0.0676395 -0.0333893 -0.105486 0.0914447 -0.0322262 0.0923247 -0.123101 -0.088537 -0.0773728 0.0667519 -0.0829511 -0.0448826 -0.111478 0.116949 -0.040475 -0.109473 -0.0263495 -0.0518841 -0.0781074 -0.0179936 -0.0392125 0.114301 0.0645328 0.0746563 0.0657648 0.0878942 -0.0190649 -0.0406128 0.061671 -0.0220032 -0.0696902 -0.0176645 -0.0734014 -0.0650608 0.0854762 -0.115028 0.0325246 -0.0716262 -0.0865398 0.00407467 0.021261 -0.0460992 0.0316294 0.0599493 -0.09876 0.0962502 -0.0190036 -0.087305 0.00384511 0.0022535 0.0265791 0.0223552 0.0732637 -0.0500629 -0.0751843 -0.0250028 -0.104292 0.0580286 0.00987485 0.0819027 -0.0132111 0.0729423 0.0463441 -0.0991885 -0.0212839 0.0386386 -0.0537512 -0.0601176 -0.00373033 0.0238626 0.0546618 -0.108019 -0.0950794 -0.0355854 0.0871214 -0.0894093 -0.0350651 0.0514326 -0.0608139 0.0302214 0.0315299 -0.0345218 -0.0529018 -0.0199601 0.082622 -0.105364 0.0587785 0.00972946 -0.0335424 -0.118831 0.00724258 -0.0382866 -0.1029 -0.0663616 -0.0541032 -0.0332439 0.0913529 -0.04362 -0.123384 -0.00293453 0.072223 -0.0727816 0.0881467 -0.101186 0.0444158 -0.123147 -0.0671268 -0.10368 0.1028 0.100941 -0.0824843 -0.0698892 -0.0699427 -0.0956686 -0.0773728 0.0778166 0.0100968 0.0727357 0.0307647 -0.0812523 -0.00730379 0.0998542 0.0378657 0.093878 -4.97377e-05 -0.121639 0.115939 -0.0897154 0.00855872 -0.108164 -0.0448749 0.00894896 0.0896465 0.0879248 0.107147 -0.0670503 -0.100229 -0.00519185 0.0999307 0.116497 -0.0459003 0.0106324 0.0542792 -0.112977 0.0664075 -0.0911386 0.1218 -0.00220759 -0.00553619 0.00522246 -0.038585 0.0296246 -0.0680068 0.0264566 0.0960512 -0.0686955 0.118724 0.123483 0.0953319 0.04916 -0.0319584 0.0721771 -0.060944 -0.11121 -0.00465622 0.101431 0.00900253 -0.0110686 -0.0738758 -0.106879 0.045862 -0.120928 0.0278263 -0.0540266 0.0411408 0.0110992 0.0475225 0.0926155 -0.109465 -0.115625 0.0413014 0.114171 0.02625 0.00389102 -0.0151624 -0.000195125 0.105586 -0.109312 -0.0563835 0.0313462 -0.020733 0.0351263 -0.0510806 -0.00413588 0.0166545 0.0121475 0.104399 -0.0372383 -0.00335538 -0.103229 0.0692923 -0.0776176 -0.090075 -0.04274 -0.0524121 -0.0294409 -0.12467 -0.00283505 -0.0260281 0.0911769 0.00865819 0.0935337 0.022975 -0.0324022 -0.0458697 0.0907484 0.0931282 -0.119252 -0.0802652 0.0988059 0.0345601 0.116084 -0.0822241 0.107606 -0.0775182 -0.0629259 0.0548837 -0.0368174 0.097199 0.0665835 0.077105 0.0741283 0.0165244 -0.0447984 0.0116195 0.0821399 -0.0440332 0.0461375 0.110429 -0.122994 -0.061495 0.0651296 -0.068221 -0.0608905 -0.0706237 0.0345754 0.0302673 0.124134 -0.0597962 0.0551362 0.0734626 -0.10896 0.0660785 0.0377739 0.115763 0.0907101 0.10293 -0.0572328 0.100948 0.0391053 0.0224164 -0.0465277 0.0615485 0.0219267 -0.0512796 -0.112312 0.0984233 -0.0543786 -0.0883839 0.0325859 0.101163 0.0193174 0.0260205 -0.0522055 0.0479433 -0.0505603 0.118678 -0.0698586 0.0932353 0.0241534 -0.046237 -0.0706467 0.0282472 0.0680374 0.0809539 0.10684 0.0807396 -0.105226 -0.055603 0.0833949 -0.119221 -0.00354668 0.0462446 0.0650914 0.0667059 0.0794694 0.0389293 -0.109786 0.0980331 -0.0473694 0.0414698 -0.0613419 0.00932391 -0.123958 0.062857 -0.0532385 -0.0775411 0.112235 0.0636375 -0.0803494 0.0364578 0.0478592 0.0522284 -0.0637293 -0.0727127 -0.113192 -0.0112292 0.0303591 -0.123453 0.0177793 -0.103849 -0.0485478 0.0527641 0.0540726 -0.0490605 -0.0109614 0.0134177 -0.0799362 -0.0490988 -0.0940923 0.118387 -0.0325323 -0.0622372 -0.0780232 0.0515551 -0.0117496 0.118242 0.0423804 0.0530702 0.125266 0.106749 -0.0841218 0.0589469 0.0369934 -0.104591 0.030757 0.0939775 0.0696519 0.0673946 -0.0849635 0.123376 0.0409495 -0.101867 -0.0848487 -0.0489457 -0.109848 -0.112962 -0.0367409 -0.122603 0.055404 0.0927532 -0.0985993 -0.0538583 0.0659714 0.0624897 0.0383172 -0.00213107 -0.0197229 0.00283505 -0.0122393 0.114776 -0.102119 -0.0441633 -0.0195393 -0.0869148 -0.0804795 -0.112488 -0.0595361 0.0289741 0.0459691 -0.0400083 0.0164479 -0.00819907 -0.117561 -0.117538 0.115472 0.0929828 -0.104078 0.122596 0.123828 -0.060087 0.0804336 0.112556 0.117584 0.0496497 0.0340703 -0.00777056 -0.00916322 -0.0761332 0.0641043 0.0209472 0.0610129 -0.0371847 0.0524427 -0.0622755 0.0731948 -0.0924165 -0.0396869 -0.0765617 -0.0819563 -0.0853538 -0.0417835 -0.0712436 -0.0131805 -0.0390365 0.0480811 0.0241458 -0.0353253 -0.0776023 -0.0780385 0.0402608 0.00349312 0.0356313 -0.0729959 -0.0987064 0.0666294 0.0745415 0.120002 -0.077434 -0.117676 -0.0400006 0.0364348 -0.0324405 0.0622602 -0.116635 -0.0815278 -0.00470213 0.0519759 -0.0954773 0.00896427 -0.109764 -0.0111145 0.113582 -0.0903505 0.102662 -0.121991 0.0633773 -0.12382 -0.0111145 -0.0984998 0.0663463 0.0303974 -0.107583 0.0360905 0.0540649 0.114668 0.0943142 0.0364271 0.0974056 0.0313233 -0.0841371 -0.0355625 0.040827 0.0309024 -0.119428 0.0658948 0.0920798 0.0399853 -0.0617551 -0.076378 0.0715649 0.0012664 -0.0821323 -0.0488386 -0.0851319 -0.0356237 -0.0239927 -0.109258 -0.115097 0.0449591 -0.0639665 -0.113291 0.0783675 -0.0065539 0.0489993 0.052106 -0.0604466 -0.00454909 0.065451 0.0876494 0.124287 -0.0620765 -0.0986835 -0.114508 -0.0949876 0.0166009 0.0407735 -0.0809539 -0.0181007 -0.0811299 -0.0554805 0.0945285 -0.120974 -0.0408194 -0.122274 -0.122695 0.041531 -0.103443 -0.087152 0.123881 0.0692311 0.0651143 0.0170983 -0.095439 -0.0570109 0.0456248 -0.00549793 0.0309254 -0.0579521 0.0105329 -0.0670962 0.0537282 0.0907331 -0.0295098 -0.0743809 -0.0558478 0.0983085 0.0487927 -0.0310861 -0.006156 -0.121831 0.0207942 0.0588627 0.117033 0.105746 -0.00910966 -0.1159 0.113964 -0.107629 -0.057317 -0.10671 0.0729423 0.0611965 0.0350192 0.125006 -0.0371617 0.0756664 -0.119206 0.0831883 0.100772 0.115602 -0.0649307 0.0577914 0.0423345 0.112503 -0.0301985 -0.097727 0.0864939 -0.0324022 0.0182231 -0.0698892 -0.0662774 0.0357461 0.020029 -0.0579215 -0.0569191 0.0809768 0.0400083 0.0434363 0.028362 0.0493743 0.049313 0.0149634 -0.116191 0.112702 -0.111493 -0.105884 0.0928221 0.0691469 -0.0941382 0.0346213 0.0373148 0.0676395 -0.118846 0.0411637 -0.0660785 -0.0159046 -0.0118031 0.113054 -0.0940158 -0.0824307 -0.0981938 -0.0690857 -0.0929292 -0.113283 0.0531543 0.124731 -0.0757735 -0.0589392 -0.114393 -0.0471246 0.0141676 0.0210238 0.123813 -0.00843628 0.101966 0.0290201 -0.10368 -0.0460839 0.0985534 -0.0528942 -0.0129433 -0.0633544 0.0157975 -0.0380876 0.0470481 -0.022271 -0.116819 -0.0690321 0.0388452 -0.0456784 -0.102823 -0.0936944 0.0133948 -0.0299536 0.105807 0.046367 -0.0331827 0.00120518 0.0594366 -0.122841 -0.10557 -0.0460533 -0.012905 -0.00247541 0.0343994 -0.094934 -0.082645 -0.0789873 -0.0860577 -0.0769137 0.0583424 -0.0865398 -0.0485402 -0.00535254 0.109626 0.0170218 -0.0349809 -0.0456554 0.0683129 0.108057 0.0957145 -0.0570798 -0.0487009 -0.0532921 0.000822585 0.0383784 -0.00687528 0.0564982 0.0699733 0.0863868 -0.00493169 -0.115434 0.0179324 -0.12115 -0.113643 0.0985457 0.111562 -0.0450356 -0.0775182 -0.0456095 -0.116972 -0.0860424 0.0739677 0.101599 0.0884299 0.0300531 0.0395874 0.00493934 0.00571984 0.05004 -0.0612042 0.0983009 0.0936255 -0.0389982 0.108447 0.10655 0.0995711 0.118961 0.0586943 -0.110131 -0.119818 0.00974477 0.0278263 0.0134254 0.0430308 0.0534451 -0.0745875 0.122519 -0.105578 -0.0431762 0.106511 0.0989743 0.0821706 0.0310325 0.0200213 0.0729117 -0.104055 -0.0181619 -0.0738911 0.00321765 0.124524 0.0852772 -0.0294103 -0.0844049 -0.0718021 0.00826029 0.056108 0.00696711 -0.120874 -0.0637446 0.0634692 -0.0498028 -0.121218 0.0197535 0.101828 0.117966 0.0935567 0.0435205 0.0904806 0.0480734 -0.114133 0.0944672 0.105999 -0.122053 0.123943 0.120231 0.0453034 0.070486 0.0864786 -0.0935031 0.0384626 -0.106458 0.112266 0.123407 -0.0890726 0.00479395 -0.0426405 -0.048808 -0.118602 0.0761714 -0.00190151 -0.0408806 0.0426482 0.0692005 0.00646208 -0.0190649 0.0593218 0.107292 -0.121938 -0.091483 -0.110177 0.0340627 0.0481117 -0.0829587 -0.0428701 0.123063 -0.0421738 0.0196311 0.0714042 0.0161495 0.0796607 -0.0219267 0.0425946 0.113903 0.0966863 -0.03078 0.0320502 -0.0119944 -0.00161074 0.0245513 0.0710446 0.044982 -0.0523968 -0.103657 0.0549296 0.00807664 -0.0860271 -0.124647 -0.10857 -0.0546541 -0.0564906 -0.0492136 0.108899 -0.0819257 0.0534757 0.0941918 0.0956992 -0.0342769 0.121004 0.0609593 0.0434057 0.0119485 0.00813021 -0.0133488 0.00408232 -0.0965562 0.0410107 -0.0788649 -0.122542 -0.0816808 0.0801045 0.0791633 0.0069518 -0.0501701 0.057164 -0.0496268 -0.0682057 -0.0410183 -0.0348661 0.0533533 -0.0111145 -0.0983391 -0.0799056 -0.0366414 0.0522284 -0.0313233 0.0365802 -0.0913452 0.103412 0.0966174 -0.0168687 0.0666371 -0.0700805 0.0894093 -0.0346213 0.090603 -0.113391 0.060615 -0.00536785 0.0190113 0.0171289 0.0290201 -0.0585643 0.0833719 -0.0278876 -0.118012 -0.00971416 0.0650684 0.0296934 0.0435511 -0.0169147 -0.0201591 -0.111646 0.0498793 0.0256914 -0.0178405 0.0508128 -0.117584 0.0928527 0.0143895 -0.0383937 0.00760987 0.0030187 0.101974 -0.0262347 
-0.041202 0.00570453 0.0643415 0.053491 -0.0657494 0.0931435 0.0441174 0.0416075 -0.0186057 0.0343305 0.123063 -0.103068 -0.012423 -0.00187856 -0.0742814 -0.0236178 0.0621607 0.00254428 -0.01051 0.0275815 0.0170141 0.0628723 0.035287 -0.0423268 0.0375367 0.027811 -0.0707997 0.051226 -0.00239889 -0.0265485 -0.0262806 -0.0601635 0.0120786 -0.106527 0.0505603 0.0139763 -0.0689786 0.0568579 0.0206335 0.0663922 0.118448 0.019348 -0.099816 0.111416 -0.0339097 -0.0834331 -0.0379958 -0.0754062 -0.00460265 0.0190266 0.0330144 -0.00975242 -0.0135937 -0.0795995 -0.107728 -0.0999307 -0.0104411 0.109274 0.040651 -0.100872 -0.0811146 0.0241534 -0.0177487 0.117974 0.0692081 0.106121 0.0587556 -0.0723607 0.0109385 -0.0570033 -0.0350881 -0.0202356 -0.0395798 0.0193556 -0.0135707 0.0915136 0.0733402 -0.0815737 0.0942759 0.050568 0.00408997 -0.0110992 -0.07207 0.0103799 -0.0544934 0.0747405 0.067012 0.0287828 -0.0242988 0.0644104 0.101607 -0.0667212 -0.0706544 0.120277 -0.0813594 0.0693306 -0.120354 0.0789185 -0.0347973 0.102946 -0.0618546 -0.104996 -0.114538 -0.055733 -0.039993 0.11802 0.0680603 -0.0365113 0.118533 0.0119715 -0.015675 0.0525651 -0.0722154 0.0800739 0.110774 -0.0305964 -0.063385 0.0855451 0.0626198 0.0166162 -0.0881008 0.0826679 -0.0175268 -0.0217048 -0.00904844 0.0624591 0.0676089 -0.119964 0.125259 -0.039794 0.014466 -0.00570453 0.0331138 -0.108248 0.0336877 -0.10482 -0.00210046 0.109121 -0.0511189 0.00252897 -0.0342999 0.0409035 0.0383095 -0.0968929 0.0369857 -0.0801963 -0.118089 -0.102387 0.0568732 0.100168 -0.124142 0.0613496 -0.10567 0.0636069 -0.0780614 0.00766344 0.120545 -0.0117572 -0.046191 -0.0895394 -0.0870142 0.109863 0.0671498 -0.0428471 -0.0810763 -0.00168726 -0.0990508 0.0420513 -0.115724 -0.00202394 0.0517158 -0.119558 0.0352028 -0.0648542 -0.0976505 0.0996935 0.0302138 0.0991273 -0.0870678 -0.0258062 -0.0431838 0.101415 -0.00287331 -0.117194 -0.0513485 0.118326 0.0254772 -0.106978 -0.111669 0.121379 0.0970307 0.0430155 0.0343917 0.0963879 0.1014 -0.00559741 0.025745 0.115212 -0.026273 0.116444 0.110988 0.001473 -0.0860501 -0.0805866 0.0500553 -0.0384702 -0.0330679 -0.0903734 0.0369475 -0.0837928 -0.00998963 0.0257221 0.0940158 -0.0924701 -0.0939775 -0.0234724 0.0299765 0.0680144 0.0146114 -0.0943831 -0.0776789 0.0195699 0.00626313 -0.0671268 -0.0431456 -0.0494431 -0.0378351 0.00705128 0.0863715 -0.021567 -0.0215364 0.12418 0.0964338 0.0465813 -0.0572634 0.0890191 0.0388375 -0.0283926 0.113238 -0.122573 0.116122 -0.116268 0.0168611 0.0276427 -0.0220338 -0.0755669 0.0772733 0.109343 0.0229214 -0.0545699 -0.0208554 -0.0359068 -0.0975816 0.0789567 -0.0651373 0.0109232 0.0801581 -0.0852619 0.113398 0.0449973 -0.111554 -0.0883916 -0.115533 0.094582 -0.0592988 0.0211003 -0.0894705 0.00622487 0.0849788 -0.0968776 -0.0361211 0.0696366 0.00543672 -0.0262806 0.0147185 0.104292 -0.0748017 -0.107981 -0.0251788 0.0715802 -0.00768639 -0.00513064 -0.124318 -0.114776 0.0648542 0.0296246 -0.122359 -0.0206335 -0.0186287 -0.0586408 -0.117117 0.0562687 0.0266786 0.0738529 -0.0960129 0.0804795 -0.0759036 0.0243753 -0.0419366 -0.0616327 0.0760337 0.0307494 -0.114156 0.0748247 0.124287 0.119015 0.122359 0.0273978 0.0563835 -0.112878 0.0577149 -0.0721694 -0.06754 -0.0799974 0.0290889 -0.114584 -0.0515092 -0.0613802 0.0722995 0.0653515 -0.0807473 -0.0563222 -0.0303591 -0.11297 -0.103076 -0.0417682 -0.00931626 -0.092539 0.00566627 0.116574 0.0928756 0.0509123 -0.0455942 -0.0368557 -0.0124689 0.0065386 0.0693076 -0.0374525 0.0946203 -0.0317059 0.045533 0.0727433 0.0249645 0.0169147 0.0178788 -0.113222 -0.12118 0.0791939 -0.100742 -0.0408423 -0.00352373 0.0181007 0.0820405 0.0465124 -0.0634615 0.0337949 -0.0471322 -0.103772 0.0903658 -0.0738835 0.073937 0.0679685 -0.0614567 -0.0940158 -0.0319354 -0.103389 0.1188 0.00184795 0.118854 0.111026 0.0546082 -0.00353138 0.123009 -0.0541108 0.0692081 -0.0510424 0.101851 0.0219726 -0.015193 -0.0222328 0.067188 0.0799209 0.12294 0.111784 0.0859736 0.0847646 -0.0345601 -0.11173 -0.0491983 0.0547842 -0.109695 0.00904844 -0.0530931 0.111118 -0.0115889 -0.0332057 -0.0816273 0.113674 0.121632 -0.0294256 -0.0207253 -0.121708 -0.00778587 0.0795383 0.0725367 0.092692 0.124516 0.109802 -0.0328843 -0.0882845 0.021567 -0.00659216 -0.0950335 0.125022 -0.0863256 -0.108118 -0.0217507 0.104905 0.105019 -0.00601061 -0.0473847 -0.0652062 0.0728581 0.0523891 0.124295 -0.0620918 0.101124 0.09322 -0.0877259 -0.0199219 0.0809462 0.0968011 0.0386156 0.043421 0.0148716 0.0832571 -0.0165703 -0.0682134 0.117132 -0.0941612 0.078115 0.105892 0.0318972 -0.0649383 -0.0769366 0.00479395 0.0765158 -0.0696749 -0.0137161 0.114209 0.0199907 0.0403985 0.0750389 -0.124409 0.0588627 -0.0242605 0.032318 -0.0467037 0.00213872 0.043291 0.111562 -0.0492977 0.0738146 0.0866316 0.112924 0.0926461 0.0968164 0.0222481 -0.000149213 -0.0290354 -0.0345448 0.0206565 0.0765464 0.112281 -0.0746257 0.0113058 -0.0654204 -0.0335194 0.0577532 0.0703559 0.0162336 0.0807855 -0.00591114 0.116574 -0.0118031 0.0519377 0.0135401 -0.0270076 0.0296322 0.0215517 0.0359068 -0.0253777 -0.0193403 0.0651602 -0.0812753 -0.0795842 -0.052282 -0.0255231 0.0790639 0.0600258 0.0700728 0.0519683 0.0815201 -0.0923324 0.0350881 -0.0990584 -0.0201361 0.0780844 0.0582276 0.0927838 0.0480964 -0.072047 -0.0962655 -0.0664381 -0.0728887 -0.0410183 -0.0814895 -0.0274208 0.0942836 0.0107701 -0.0970842 -0.0322033 -0.0877871 -0.0570109 0.0417988 -0.0522208 -0.0721847 0.103481 -0.0297623 0.0997394 -0.0798214 0.00748744 -0.0535216 0.102762 0.117316 0.046742 -0.0441327 -0.0957604 0.0892792 -0.110506 -0.0339403 0.0511189 -0.0203657 -0.105165 -0.0846268 0.0637676 0.0871137 -0.0455636 -0.103466 -0.0153307 -0.0508358 0.0792245 0.120515 0.0794388 -0.0401613 -0.0977117 0.119841 0.0612807 -0.0960818 -0.0890191 0.0357002 0.0878407 -0.0530166 0.0751614 -0.0622219 -0.11326 -0.0322568 -0.0617092 0.021261 0.0138845 0.014313 0.100742 -0.113521 0.0965792 0.0273978 -0.115242 -0.00350077 0.0712436 0.107483 -0.113574 0.00767109 0.0200826 -0.029372 -0.0587326 0.0773269 0.103213 0.123629 -0.0446836 0.0944979 -0.0483719 -0.107246 -0.104736 -0.0711976 0.0205187 0.102364 0.120966 -0.0939469 0.00571219 0.0213298 0.109205 0.0923553 0.0824078 -0.116038 0.0114435 0.102739 0.0689556 0.107828 0.0857134 0.021919 0.018116 -0.0101274 -0.0619541 -0.109327 0.09687 0.0418141 -0.115204 0.100658 -0.00255193 -0.0355089 0.102976 -0.0996706 0.00319469 -0.0677772 -0.12004 0.115962 -0.0596891 -0.0547306 -0.0990431 0.018973 -0.106014 -0.0934419 0.106917 -0.0402608 -0.0768295 -0.0552586 0.0730647 -0.05004 -0.105769 -0.121218 -0.0430155 0.0466578 -0.0726592 0.104193 -0.0602171 -0.00861993 0.0685424 0.0380341 -0.0295327 -0.0541644 -0.0679991 -0.0869301 -0.00641617 0.0282166 -0.0656653 0.0523738 -0.0370393 -0.00991311 0.101323 -0.0956074 0.0722766 -0.0024295 0.0750236 -0.00369972 0.00383746 0.0956916 0.0625586 0.0592147 -0.116995 0.0718328 0.0860807 -0.00675285 -0.0156903 0.0552433 0.0334352 -0.0650378 0.121754 0.0582582 -0.125198 0.0774876 0.0317135 0.0498793 0.0375826 0.0160806 -0.0741743 0.0209549 0.05105 0.0246967 0.0149175 -0.123445 -0.0337337 0.0244748 -0.0634768 0.119229 -0.0952401 -0.0966328 -0.104093 -0.100979 -0.01517 -0.0432527 -0.0602706 -0.0868076 -0.00933921 0.0934266 -0.0752685 -0.0383478 0.0302597 0.0871749 0.110728 -0.105379 0.0430231 0.0198147 -0.0745109 0.0270688 -0.0957757 -0.0637217 0.096495 -0.0223552 -0.00665338 0.114309 -0.0700192 0.0301908 -0.0383707 -0.0336801 -0.0528789 -0.0360599 0.0790486 -0.0150552 -0.0974668 -0.0483106 -0.112717 -0.0142747 -0.112358 -0.0233193 0.0432603 0.0644104 0.0602706 0.110842 0.073983 0.0296552 -0.0669125 0.11085 -0.0669279 -0.0324558 0.033703 -0.0773575 0.0857517 -0.0445535 0.0990584 0.0522361 -0.0111221 0.0770208 -0.123438 -0.116895 -0.0267474 0.00975242 -0.0458544 -0.081237 -0.124524 0.0889119 -0.0840606 0.0129433 -0.0719552 0.110582 0.0214905 0.0675706 0.0131728 0.0342081 -0.0557636 0.0250334 0.0308336 0.100987 0.0148257 0.118479 -0.00602592 0.0153843 0.00957643 -0.0379422 0.0938321 -0.0285915 -0.0733861 -0.0479357 0.100757 -0.0884452 0.0465736 0.0505833 0.0985228 0.0506368 -0.0434363 -0.07585 -0.0884681 0.0553198 0.102555 0.0222404 -0.0246967 -0.0882079 0.0327006 0.0459844 0.00659216 0.122978 -0.0943448 -0.0918809 -0.0213681 0.00507707 -0.0721312 -0.11463 0.00871175 -0.000547115 0.0313003 0.049512 -0.0975357 -0.000470595 -0.0281554 -0.059207 -0.0231816 0.110269 -0.0967934 0.0744115 -0.105823 0.102379 0.102211 -0.0246278 -0.112082 -0.0328919 -0.0998772 0.0992574 0.108838 0.0903581 0.0122776 0.0776329 -0.0348049 -0.0584189 0.0463288 -0.106504 -0.0440026 0.0648389 -0.105517 -0.0642879 0.0972066 -0.00122049 0.0498563 0.0186823 -0.0520754 -0.0780232 0.0241075 0.0861725 0.103282 -0.0960206 -0.0638671 -0.0726439 -0.119267 0.0451886 -0.0644257 0.122573 0.0930363 -0.100604 0.0235719 0.0424033 0.118487 -0.0396639 -0.0505909 -0.118403 -0.0831653 0.0959823 -0.00989781 0.0440332 -0.0376132 -0.0315146 0.0350957 0.0963267 -0.0359068 0.0845656 0.0396945 -0.116535 -0.124899 -0.010816 0.0216512 0.00934687 0.0496344 0.0201132 -0.0936944 0.0131346 0.0380494 -0.1232 -0.0977499 -0.0307417 -0.101507 -0.0805483 -0.0423345 0.0810687 0.00565862 -0.0436889 -0.0178788 -0.0159811 -0.0244595 -0.0693765 -0.114225 0.101339 -0.0419442 0.0232734 0.1175 -0.0018556 -0.0983162 0.0694224 -0.00118223 0.088713 0.0419213 0.0676242 0.0515704 -0.112212 -0.0269923 -0.0754368 0.0996629 -0.0872744 0.0560774 -0.0367868 0.0952248 -0.0739906 0.0158128 0.0867158 -0.0371388 0.123361 -0.0166774 -0.121831 -0.104139 -0.037047 0.0908173 0.035815 -0.0943219 -0.0127596 0.114852 -0.0982397 0.0583806 0.0791557 0.0377203 0.0088801 -0.0513026 0.00580401 0.0149175 -0.109396 0.0991196 -0.0462063 0.116734 0.0783599 0.0734244 -0.111194 0.0870448 0.0357538 0.00414354 -0.043245 -0.0109997 -0.0486779 0.072399 0.00687528 -0.0254619 -0.105938 -0.124318 -0.0472394 0.047622 -0.00894131 -0.00510768 0.054524 0.0639359 -0.104491 -0.0766917 0.080005 0.084688 -0.0493819 -0.0656653 -0.0614567 0.0736692 0.0611353 0.0476755 -0.00694415 0.0581281 -0.0682976 -0.0901898 -0.117209 -0.00670694 -0.0567125 0.0197382 0.0802958 -0.0502848 0.0585183 0.0923017 0.000156865 0.113911 0.0389446 0.004771 -0.108088 -0.0321727 0.120254 0.12203 0.0839764 -0.101201 -0.0878483 -0.073279 0.046895 0.0919804 -0.0655046 0.0242299 0.120239 -0.042916 0.0461069 -0.0704937 0.096847 -0.0378504 -0.0700498 -0.0347284 0.0163178 0.099441 -0.0970613 -0.0705855 0.119535 0.115839 -0.0572558 0.102808 0.0505144 -0.0046103 -0.036167 0.0137238 0.0244901 0.0595055 -0.0127673 0.0284385 0.0366031 
-0.075521 -0.0231587 -0.0695448 0.080908 -0.0555494 -0.00747979 0.0596432 -0.0385697 0.117117 -0.068596 -0.0742508 -0.0901898 0.0799821 0.00912496 0.118311 0.0897536 -0.0612731 -0.00135822 -0.0798214 -0.047775 0.0391972 -0.11714 -0.0430614 0.0347055 -0.0740059 -0.0612577 0.0327466 -0.102823 0.115449 -0.0997777 -0.0195316 0.0536211 -0.0946585 -0.018468 -0.0547842 0.0872055 0.114623 -0.101867 -0.0946432 0.0558631 -0.0364118 -0.0795612 0.115678 -0.116344 -0.0032406 0.0974286 0.0201591 0.0837086 0.00814551 -0.069629 0.0771891 0.0124383 0.110054 -0.100895 0.0327159 0.00973712 -0.0772197 0.100497 0.0901745 0.114485 0.0146191 -0.0911386 0.0172437 -0.0449897 0.0680833 -0.0642803 -0.120132 0.0258215 -0.0924777 -0.0815737 -0.0488692 -0.076225 0.120836 0.0834255 -0.0247809 0.0234571 -0.114707 0.115219 0.0978188 -0.0917508 0.0133259 0.0171213 -0.117745 0.0369016 0.0526263 0.00392928 -0.0205799 -0.0379346 -0.036343 -0.0487774 0.112495 0.0820787 -0.0270611 0.0549602 -0.0493513 -0.0083215 0.0987141 -0.0335806 0.0428548 -0.088361 -0.0319508 0.0619082 0.108746 0.0178635 -0.0796684 0.106642 -0.118594 -0.112319 0.00458735 -0.0249951 0.0495426 -0.0955997 0.122175 -0.056789 -0.030979 0.0679073 -0.0719246 -0.0488386 -0.0286681 0.0583883 -0.0126449 0.113551 -0.075674 0.0126678 0.0417529 0.121762 0.117553 0.0933041 -0.105165 0.0674558 -0.111416 0.0651067 0.0243371 0.0784976 0.0627652 -0.0319125 -0.0919498 0.04463 0.109396 0.0925772 -0.0523815 0.082974 0.0985917 0.0919498 -0.0380494 0.0119638 0.117041 -0.0481346 -0.116268 -0.0116884 -0.0444847 -0.106596 -0.106588 0.073937 0.000638938 -0.076906 0.107896 -0.115334 -0.124631 0.119015 0.0670656 0.0994334 0.0232581 0.109327 -0.109258 -0.0389446 0.0227301 0.0860807 0.0893098 0.069453 0.0802882 0.0555494 -0.104958 0.085216 -0.00975242 -0.0813441 0.12369 -0.107988 0.0040211 0.0915059 -0.0975892 0.1043 -0.0974898 -0.0057734 0.0436736 -0.0621454 -0.0376821 -0.114959 -0.106389 0.114186 0.109465 0.108187 -0.066836 0.040498 -0.0517158 -0.0270152 -0.030757 -0.0547 -0.0290507 0.111501 -0.0711976 -0.0307341 0.116245 0.0010904 0.113689 0.121502 -0.00523011 0.0154837 -0.0944443 0.121746 -0.0419825 -0.058526 0.0530931 0.0294639 0.0571257 0.0652521 0.00858932 -0.0716797 0.0806172 0.025041 -0.0404215 0.068573 -0.0264643 0.0296475 0.0253854 -0.0136626 0.0661474 -0.109649 -0.00417414 0.00841333 -0.0867694 -0.0357844 0.105693 -0.0995481 -0.0638977 -0.0422273 -0.046367 0.0730112 -0.0955309 -0.06011 0.0709757 0.103405 -0.0455253 0.0141906 -0.0105176 -0.0122087 -0.0645557 -0.00891071 0.0716491 -0.11561 0.0234341 0.022998 -0.0502848 0.00120518 -0.101522 0.0324634 0.0846192 -0.100574 -0.0747328 -0.100191 0.0434057 0.119726 -0.121096 -0.00494699 0.00630139 -0.113773 -0.090932 0.00904844 0.104836 0.0638212 0.0366031 -0.068948 0.0904882 0.10896 0.117729 0.124738 -0.0470481 -0.0552969 0.080028 0.087305 -0.0243064 0.0134101 0.109037 0.115143 0.0955921 -0.0931282 0.0879478 -0.055557 0.0632932 0.110506 -0.0248497 0.0945897 0.0203351 -0.0100126 -0.0792092 -0.0171595 -0.0192715 0.0673258 0.0517158 0.0424492 0.0897536 -0.0405592 -0.0202356 -0.0931205 -0.10306 0.026449 -0.0312315 -0.10772 0.0203274 0.108509 0.0539807 0.0974668 -0.0741513 -0.111975 0.0523432 0.0910774 -0.0372383 0.0232734 0.0168993 0.0243294 -0.125335 0.0649001 0.0619617 0.121295 -0.0788343 0.0743349 0.115235 -0.113375 0.0891415 -0.0502083 0.0280329 0.000386424 0.0185216 0.11903 0.098232 -0.0344989 -0.114523 0.112189 -0.070333 -0.00619426 0.103894 -0.0725214 -0.0546082 -0.0546388 0.0880702 -0.0493513 -0.0321114 0.0459921 -0.0448137 0.0788037 -0.0639742 -0.0411101 -0.105708 0.0776942 -0.0700039 -0.0678843 0.0773804 0.0678614 0.0605997 0.0964108 0.101798 -0.0905724 -0.0983621 -0.11991 0.0874504 -0.10906 0.0275968 -0.116214 -0.0894093 -0.0121934 0.0699121 -0.092539 -0.0486244 0.0957298 0.116589 -0.0142747 0.087657 0.00899488 0.119076 -0.120821 0.0615409 0.0447525 0.119497 0.116581 -0.0429237 0.0800127 -0.0260817 0.0355625 -0.0963037 -0.0914447 -0.119765 -0.0712818 0.000516507 -0.0619005 -0.115005 -0.0155985 0.0775717 0.12014 -0.0715802 0.1203 0.0383401 -0.106068 0.106381 -0.081566 -0.101828 0.0458544 -0.049535 0.00131996 0.0122087 -0.0116731 -0.0847569 0.0462829 0.10596 -0.115434 0.112794 0.0431226 0.109488 0.12053 -0.0149558 -0.00793891 -0.0960129 0.0280329 -0.0282702 -0.116734 -0.0213145 -0.105547 0.0887283 -0.0812141 0.106848 -0.111432 -0.0152159 0.0601329 0.0448443 -0.062 -0.0951712 0.116046 0.115135 -0.0451657 0.107108 -0.0448979 -0.0898455 -0.068573 -0.082446 0.0548148 -0.0012511 0.0553428 -0.013632 -0.0340703 0.108065 0.114699 -0.0964415 -0.0816579 -0.0839152 0.0978877 0.00397519 -0.11225 -0.0602477 0.00542141 0.0201055 0.0957757 -0.122045 0.0255155 -0.0972066 0.0208095 -0.0821859 0.0942453 -0.018644 -0.107759 0.107093 -0.00819907 0.0164096 -0.00975242 0.0414621 -0.00138118 0.0838234 -0.0313845 -0.0128285 0.00339364 0.0849406 0.0418983 -0.0790868 0.0955156 0.069277 -0.0140146 0.11476 0.0326012 -0.0798979 0.0500859 -0.00124344 0.11398 0.087504 -0.020205 -0.0680144 0.0987447 -0.0864633 -0.00140413 0.107238 -0.0470557 -0.00200864 -0.0524886 -0.0334505 0.0673258 -0.116 -0.0713048 -0.125266 -0.0337107 0.0192791 -0.0936026 -0.0968164 -0.0806019 0.0244901 0.106657 -0.0215594 -0.0372229 -0.0320732 -0.0800433 0.00875767 -0.0104487 -0.0625203 -0.0937862 -0.0192026 -0.0700958 0.0959517 0.0930746 -0.106756 -0.081084 0.0208631 -0.0807626 0.0209855 -0.0258598 0.0163943 0.0342387 0.122925 0.0841371 -0.0609976 0.0233117 0.0930669 -0.0209166 -0.0205034 0.0416917 -0.0843131 -0.0137927 -0.0540037 -0.074664 -0.0803417 -0.0154608 -0.0136779 0.00154952 -0.0547689 0.118295 0.0462599 -0.075521 -0.0774569 0.0327313 -0.00064659 0.00973712 -0.0262653 0.0410566 0.00140413 -0.111309 0.0306805 -0.0168228 -0.00366911 -0.0403449 0.0888813 -0.0628876 -0.0674099 -0.045005 0.0867005 0.048456 0.118181 0.101423 0.0290124 -0.122626 0.0139533 -0.0552586 0.0966251 0.0449285 -0.0920492 0.0654051 0.106795 0.0590616 0.00935452 0.00125875 0.072223 0.116566 -0.0995175 0.110973 -0.0298465 0.00943869 -0.0939699 -0.0575848 -0.0326777 -0.077059 0.0464665 0.0873127 -0.0352487 0.0148027 -0.109848 0.0863103 -0.0411101 0.0526416 -0.01429 0.118104 0.082974 0.0107931 -0.0851242 0.0396792 0.0699886 -0.105142 -0.0840912 0.00103684 0.0100126 -0.0542715 0.114653 -0.0376209 -0.113322 -0.00695946 0.0510041 0.0806019 0.0161418 0.112671 0.0598498 0.0453264 0.124187 0.104598 -0.0771432 0.0834178 -0.0629412 -0.0543098 0.111347 -0.0428931 0.0244824 -0.012576 0.03355 -0.0716644 0.00355433 0.0443469 0.111003 0.0144584 0.113444 -0.0957604 0.0914218 0.00354668 0.00989016 -0.0956533 -0.0786507 0.0646476 0.0372536 0.0928068 0.0992344 -0.0919727 0.0807702 -0.120645 0.0592759 0.0918197 0.00316408 -0.0461145 0.0319048 -0.0802576 0.0277804 0.102632 -0.0836321 0.0396716 0.0576384 -0.0338943 0.109817 -0.0749318 0.0536747 -0.121203 0.0851166 0.104315 -0.03997 0.0590693 -0.0876111 0.0721235 0.0461222 0.0531161 0.0150935 -0.00713545 -0.0975739 -0.0388987 0.0930975 -0.111738 -0.0314075 0.0839075 0.0256991 -0.0942147 0.0699198 0.0170218 -0.0740518 0.124386 0.0943525 0.0984463 -0.097375 -0.0164708 0.0441097 -0.0312085 -0.0392201 0.0546159 0.0809692 -0.0914371 0.0957451 -0.027482 0.0558249 -0.0386156 0.00853576 0.0100891 -0.106129 0.000937365 0.00207751 0.113536 0.075192 0.0128974 -0.0213298 0.1204 0.0718021 -0.0114894 0.104009 -0.00718901 -0.00127405 -0.0451886 0.0584112 0.026625 0.0803876 0.0395721 -0.0611889 0.119925 -0.0695448 0.0931282 -0.0169453 0.0674023 0.0192638 0.0187358 -0.0765923 -0.0359986 0.0555188 0.0829664 -0.0952324 -0.0736539 -0.0840529 0.101079 0.0135019 -0.0295939 0.106412 0.0284921 0.101637 0.00619426 0.116597 0.101193 -0.0388605 0.0357232 -0.0738376 0.0470787 0.0286298 0.0135172 0.015698 0.0246508 -0.0828822 -0.0426405 -0.12522 0.0528023 -0.0300837 0.0194398 -0.111416 0.0865857 0.124394 0.102464 0.0760796 0.0101809 0.0270765 -0.0153537 0.0599034 -0.0532385 -0.0467037 0.0396792 0.00925504 -0.0942759 -0.0464053 0.00517655 -0.0846498 -0.0808162 0.0397404 -0.10241 -0.0503843 -0.0610511 0.0863103 0.0254925 0.0162872 -0.10629 0.0040058 -0.063232 -0.00395989 -0.0702105 0.114248 0.02159 0.0458697 -0.018468 0.0247656 0.0903352 -0.0554117 -0.0515857 -0.052611 -0.0978877 0.108723 -0.124402 -0.000317556 -0.0251864 0.00842863 -0.0893022 -0.072751 -0.120461 0.118831 -0.0651602 0.0537435 0.123177 -0.123438 -0.105433 -0.12219 0.057845 0.0336189 -0.0195622 -0.112067 -0.0729117 0.123246 -0.0764163 0.00560506 -0.0111757 -0.0686955 0.0666524 -0.0229291 0.0610129 -0.0495962 -0.0301602 -0.112028 -0.0478056 -0.0684123 -0.0333817 0.103611 0.110957 0.0387533 -0.0744344 0.0626963 -0.0522284 -0.0404062 -0.119527 -0.00865819 -0.0669891 -0.0232199 0.0448902 -0.0494278 -0.0900215 0.105325 0.109205 0.0330985 -0.0225235 0.0462599 0.100489 -0.116115 -0.109037 0.0742202 -0.0550444 0.106611 0.0773498 0.0929751 0.0134101 -0.030757 -0.0382942 -0.0146497 0.0402684 -0.0111757 -0.0394573 -0.00415119 -0.0499788 0.047423 0.0817573 0.0100508 -0.0179783 0.114967 -0.018445 -0.0206105 -0.11385 -0.00202394 -0.0623979 0.104522 0.0965639 -0.0757429 0.0665606 0.0172207 -0.107889 -0.112855 0.00340895 0.0871826 -0.0361593 0.0607298 -0.119038 0.0818415 -0.115097 -0.0409877 0.0630713 0.0608369 -0.0908326 -0.0959594 -0.0315835 -0.0130963 0.1013 -0.0314534 -0.0425181 -0.0741207 -0.0438725 -0.0416611 0.100528 0.0758194 0.035111 0.113008 0.0498181 -0.00950756 0.00193212 0.0726209 0.102471 -0.00163369 0.101293 0.0515474 -0.0957834 -0.0803035 -0.0386003 0.0117496 -0.104843 0.0888278 0.00909435 0.0247043 -0.0579368 0.0350727 -0.120415 0.121479 0.00743388 0.0799362 0.112679 0.0620536 0.0580057 -0.0495962 0.0130581 0.0816349 0.0511266 -0.0831806 -0.0276504 0.0360445 -0.040169 0.0594595 -0.12307 0.00995137 -0.0772044 -0.0872668 -0.106756 0.0606685 -0.0215135 0.108914 0.018621 -0.0952401 -0.0287599 -0.00415884 -0.0746716 -0.0188659 0.0915212 0.121999 -0.00079963 -0.0660785 -0.120078 0.0530242 0.0857211 -0.0394191 -0.081742 -0.0883227 0.104514 0.0655964 0.0255078 0.116949 0.0482112 -0.0928986 -0.0628264 -0.058373 0.0160576 0.0437271 0.0468185 -0.10505 0.0551362 -0.00228411 -0.0860501 0.024513 -0.0420972 -0.0409112 -0.110008 -0.103627 0.0427171 0.0427477 0.0561998 0.120277 0.0571333 -0.0886518 0.0699274 -0.104162 -0.0112292 -0.0528559 -0.119742 -0.0253395 -0.0763704 0.0159352 -0.10544 -0.00213107 -0.0216589 0.0150323 0.0554882 0.105586 -0.0462217 0.00347016 -0.0796301 0.0404444 -0.0127673 0.0947427 -0.0453111 0.125297 0.0953243 -0.0838922 0.113911 0.095462 
-0.115066 0.0713813 -0.0628494 -0.085239 0.085392 -0.104981 -0.0120097 0.0603242 -0.0922788 -0.0478821 0.0901286 -0.110942 -0.0920875 0.0618929 -0.0398476 0.0957757 0.0974133 0.0453952 -0.0582123 0.10319 -0.0310708 -0.00705893 -0.078314 -0.0960053 -0.0404444 -0.019524 -0.101874 -0.0466808 -0.0131346 0.0421585 0.0319967 0.106733 0.0961507 0.0777401 -0.109695 -0.0220262 0.108157 0.000455292 -0.0228832 -0.0436965 0.0459844 0.0547995 -0.00338599 -0.00777822 -0.0144507 0.105448 -0.0478668 -0.0952937 0.105402 0.083326 0.0301525 0.0739447 0.0817573 -0.11134 0.107774 0.00415884 0.108929 -0.0659867 0.0980331 -0.11098 -0.0670732 -0.125106 -0.0343076 -0.0938627 -0.066354 -0.0293185 -0.124325 0.116421 -0.10896 0.115939 0.0590234 -0.0426176 -0.0277039 -0.0181543 0.10629 -0.0445153 0.0768984 0.0721006 0.031308 -0.117492 0.0705702 0.11212 0.057294 -0.00718901 0.0539654 0.0921487 -0.0363889 0.0681063 -0.0625203 -0.118181 -0.0399241 -0.102418 -0.0246814 -0.0215977 -0.0848258 -0.0680756 0.0259134 0.0586714 -0.0918579 -0.0279641 -0.0559779 -0.0974898 -0.065803 -0.103512 0.125152 0.110291 -0.0224011 0.0378504 0.0944902 -0.0891262 0.0372459 -0.0536517 -0.072047 0.0132035 0.0655046 -0.0790562 -0.109855 0.0254695 -0.0933654 0.0345448 0.0678308 -0.100742 -0.0522973 0.0303591 -0.102731 -0.0626657 0.0608598 0.0816732 0.116038 0.0468338 0.0574318 0.0251941 0.0170447 0.0476908 -0.0152083 0.0688791 0.0576078 -0.0369169 -0.0239392 0.0830429 -0.0569956 0.0957451 -0.0102957 -0.0257756 -0.0191031 0.0676089 -0.0987906 0.00569688 0.0885217 -0.113597 0.033022 0.0537741 -0.0135478 -0.0401843 0.0777554 -0.076577 -0.0243447 0.112082 0.0111374 -0.0369475 0.0646246 0.0399011 -0.0533533 0.0902204 0.102938 0.00880358 0.0209855 -0.0216053 -0.0582505 -0.0357461 0.020557 0.0209549 0.0207712 0.121257 0.08869 0.0556948 -0.101974 -0.0469562 -0.0328613 -0.0208784 -0.114202 -0.103749 0.117668 -0.0138462 0.0495579 -0.0648695 -0.0795612 0.0512566 -0.0219496 -0.116444 0.0561233 -0.103221 0.100558 0.0407582 0.00593409 0.0676471 -0.0640278 0.0188889 0.0331674 0.0926614 0.0671804 -0.0654893 0.0848411 0.118441 -0.033925 0.0069518 -0.0378198 -0.00959938 -0.0330067 -0.00243715 -0.0313462 -0.0897996 0.0152848 0.0490758 0.115709 -0.0963879 -0.0213298 0.0964491 0.103764 -0.0284232 -0.0850859 -0.0901133 -0.086096 -0.0863715 0.0687873 -0.0495885 -0.0319048 -0.0558249 -0.00521481 0.0837698 -0.0587938 0.0879095 0.0888354 0.0941688 -0.0532538 -0.0236943 -0.0891644 0.0465889 -0.0801275 0.0402914 0.0915136 -0.0741283 -0.0832724 -0.0458697 -0.051249 0.111707 -0.0882462 0.0896465 0.114332 0.111669 0.0568961 0.0805177 0.0396257 0.120507 -0.0157133 0.00523011 -0.0682134 0.0694989 0.122252 0.0434669 -0.00202394 -0.0179706 0.0959288 0.102678 0.0299077 0.0601941 -0.0595361 0.0337719 -0.0208707 0.0559702 -0.0497951 -0.0733555 0.0420819 0.113046 -0.122848 0.101545 -0.0976658 0.125213 0.0721082 0.0363353 -0.0883304 0.0483259 0.0160653 0.108172 0.0962348 -0.0331521 0.0950718 0.124011 0.0202968 0.095309 0.0601482 0.023128 -0.0929675 0.017236 0.0254236 -0.0144354 0.031132 0.0999231 -0.0464742 0.0640431 0.0364654 0.125159 -0.0289282 0.0837851 -0.0425258 0.0800739 -0.0294103 -0.072223 0.0843743 -0.0965562 0.0896006 -0.0511725 -0.0537129 0.122802 0.021613 0.12157 0.0717103 -0.0731718 0.00353903 -0.0675094 0.0303821 0.124746 -0.0701187 -0.122267 -0.0736463 0.0149787 -0.0605232 0.0474995 0.100046 -0.122657 -0.0716568 -0.0735085 -0.0594748 0.116956 0.0806096 -0.0960971 0.0940158 -0.00171021 0.121815 0.0973367 -0.0568885 0.0359604 -0.111983 -0.00692885 -0.0916207 -0.0518458 -0.0820099 0.0231969 -0.0548301 0.000378772 -0.102066 0.056965 0.0263878 -0.0978953 -0.065627 -0.0612577 0.00177143 0.0751078 -0.022646 0.0587326 0.110965 -0.0424722 0.112886 0.0681904 0.0426176 -0.0823083 0.0556871 -0.00629374 0.0733096 -0.0628187 0.0596891 0.107208 -0.0780538 -0.117844 0.0728428 0.0451045 0.107139 0.0385391 0.105968 0.0524656 -0.0613572 -0.0397864 -0.10404 0.0815967 -0.0605614 0.0727893 0.0806631 0.122359 0.0712665 0.0702258 -0.042939 0.0010904 0.055756 0.0514862 0.0577761 0.0194245 -0.0659867 -0.0613343 0.104132 -0.0822241 -0.11473 0.115105 0.0694224 0.0420513 -0.0450509 0.0785971 -0.074664 -0.0582046 -0.0336571 0.0540266 0.038233 0.0335117 0.0155909 0.104025 0.0448213 0.0528559 0.068948 -0.0733708 -0.0708457 -0.0705013 0.0649996 -0.103535 -0.123185 0.0679379 0.0438113 0.0190955 0.120698 -0.101844 -0.0496497 0.113222 0.112511 -0.0462905 -0.111937 -0.103673 -0.0104105 0.0727204 -0.0316523 0.0316753 -0.0900444 -0.0177105 0.0302673 0.0543021 -0.0254925 -0.123353 -0.119114 0.000791978 0.0704478 -0.0219802 0.0796301 -0.0946892 0.098079 -0.0497951 -0.0947198 -0.0250869 -0.0849253 -0.087986 0.0513026 0.119849 -0.0380341 -0.09146 -0.0820328 -0.103275 -0.103129 0.089218 0.0559243 0.0477138 -0.0356466 -0.0452192 -0.119459 -0.0764851 -0.0808697 -0.0748935 -0.0422426 -0.00281975 -0.0213451 0.079852 -0.016203 -0.0047863 -0.120989 0.0759342 0.00448022 0.0978877 0.00679111 0.108524 0.00807664 -0.00203925 -0.0709834 -0.100933 -0.0787731 0.00989016 0.0489611 0.0901898 -0.0939163 0.021743 -0.0450433 0.0220721 -0.0208707 -0.0194704 -0.0580133 0.0314763 0.103581 -0.0402608 0.0255384 -0.00895662 0.0266556 -0.0106324 -0.0813824 -0.0263648 0.0135248 -0.0459691 0.0583577 0.0247885 -0.0059647 -0.00991311 -0.118257 -0.0868 0.0292879 -0.067739 -0.0439643 0.104958 0.115579 -0.00426597 -0.0990431 0.0674176 -0.0238779 -0.00935452 -0.038233 -0.0876417 0.117722 0.00718136 -0.0743885 -0.0199984 0.0387074 0.118739 -0.0194245 0.110988 -0.119841 0.0357002 -0.0320426 -0.0223935 -0.0978112 0.0182155 0.122864 -0.0349274 0.0656194 -0.0312544 0.00420475 -0.0378887 0.118464 0.0186823 -0.0369781 0.0648771 -0.039817 0.0312774 0.0950335 0.0522055 -0.0691087 0.0815431 0.0232811 -0.119038 0.0463058 0.0874351 -0.026801 0.0652521 0.0823006 -0.0990737 -0.0334046 -0.0740901 0.0311703 0.0391436 0.104315 0.0961201 0.0755363 0.10153 0.0178558 -0.00189386 0.103336 0.068068 -0.0418906 -0.0636069 -0.0841524 0.0201361 0.0970842 0.0270382 -0.0986376 -0.0314304 0.00942339 0.0920186 0.066859 0.0945667 -0.0758041 0.00962234 -0.0414851 0.0792169 -0.0531696 -0.113926 0.12141 0.0839382 0.0954467 0.0405592 0.107215 0.0515551 0.109465 -0.0817573 -0.0514709 -0.109526 0.119642 -0.0647241 0.108861 -0.0303209 -0.116314 0.104851 0.0567967 -0.0262041 -0.0666906 -0.0502313 0.00150361 0.0592682 0.0801581 0.0697285 -0.0795536 0.104086 -0.119833 0.0901362 -0.085239 -0.0106783 0.0141753 -0.120262 0.035264 -0.0355548 -0.093021 0.0175574 0.104047 0.0229214 0.0707691 0.122175 -0.0687414 0.0980254 -0.0182384 0.0502772 -0.0493819 0.00554384 -0.0239621 0.0702488 -0.0848717 -0.0596891 -0.0207559 0.00292687 -0.060967 -0.0483106 0.0459232 -0.0455712 0.0231816 -0.0427477 0.0363506 -0.124868 0.0929981 -0.0265867 -0.103734 0.0682057 -0.054019 0.116367 0.124195 -0.118188 -0.115747 0.052106 -0.120323 -0.0321191 -0.0755057 -0.0437501 0.0902204 0.0761485 0.116084 -0.0956992 -0.0163714 0.0230286 0.110529 0.00386041 -0.0803035 0.066484 0.0114052 -0.0555035 -0.0490299 0.0521443 -0.104185 0.0261965 -0.0341239 0.0810151 0.0365037 0.0853079 0.121226 0.0581817 -0.0321497 -0.116604 -0.104836 0.120537 -0.0705855 -0.114638 -0.0160117 0.0552127 0.0719016 -0.0256149 0.108256 -0.0425105 -0.043444 0.0449361 -0.0394879 -0.0109155 0.00115162 0.0213757 0.12115 -0.0187894 -0.118624 -0.0162336 -0.105601 0.00285801 0.0542026 -0.0456707 -0.076401 -0.11942 -0.0924471 0.0262041 0.0182997 0.0440179 -0.0434057 -0.113551 0.0526034 -0.0719246 0.0864174 -0.0806861 -0.116612 0.0672645 0.00783943 -0.0670273 -0.120645 0.101209 -0.0561845 -0.0476526 0.0155909 0.0805101 -0.0597121 0.12405 -0.123369 0.050193 0.0814666 -0.086295 0.0301831 0.034231 0.0034166 -0.0899373 0.0938245 -0.0881161 -0.0140299 -0.10306 -0.0254313 0.0555264 0.0108313 0.0177181 0.105012 -0.035968 0.0689786 -0.0527717 -0.115372 0.0240386 0.111049 -0.113184 -0.0713277 0.122795 -0.0850324 0.0525498 0.0618776 -0.00590349 0.0226154 -0.0349044 -0.0869224 0.0358379 0.00802308 -0.0218731 0.0656347 -0.0413627 -0.00708189 0.0853079 0.0888813 0.0215747 -0.0831194 -0.0528023 -0.0695448 -0.0420284 -0.0294103 -0.057822 -0.00815316 0.0965945 -0.0409495 -0.0887359 0.0985687 0.0317595 0.000233385 -0.0858052 -0.041355 0.100068 0.0753986 -0.0825608 0.0672339 0.0143053 0.0842748 -0.0265485 -0.116053 -0.087856 -0.0728505 0.0682593 0.0136855 -0.0746181 0.0135784 -0.0567431 -0.047951 0.0171289 -0.0355625 0.0740824 -0.118739 -0.0464512 -0.0811605 0.10052 0.0835249 -0.0959364 -0.0438648 -0.097551 -0.061296 0.0320808 0.0384396 0.116918 0.102662 0.0716491 -0.0041971 0.020052 0.054371 0.010334 -0.0464436 0.100076 0.124394 0.115388 -0.0282472 -0.0265408 -0.0579138 -0.0807702 0.0484484 -0.0264107 -0.0931741 -0.0824154 0.00883419 0.0728199 -0.122894 0.0799132 -0.0693306 -0.046015 -0.0722766 -0.0715037 -0.12421 -0.0900521 -0.123675 0.0528559 0.0794388 0.118808 -0.0778855 0.0369857 0.116612 -0.0206947 0.100849 -0.0624438 -0.047622 0.0687108 -0.10391 0.0397175 -0.109213 -0.117308 -0.0265408 0.0111221 0.072728 -0.0627652 0.10619 -0.0464589 0.0478056 -0.112472 0.0229827 -0.0405822 0.0733708 -0.00972946 0.00455674 -0.0794388 -0.0981478 0.0717945 -0.0638824 -0.0426099 -0.0308489 0.0686878 -0.0891721 -0.0436429 -0.0071278 0.0644945 0.0883304 0.0882615 -0.106619 -0.122672 -0.105356 0.0430614 0.0522131 -0.116918 0.0345295 0.10746 0.0537971 0.120155 -0.119619 0.0656882 -0.0541108 0.112671 -0.0227531 0.0528329 -0.0950947 -0.0316217 -0.0286068 0.0932276 0.0849482 -0.0773039 -0.0531467 -0.0540726 0.0471322 -0.11186 -0.00936982 0.00158778 0.049336 -0.0584342 -0.0466502 0.0887436 0.0828057 0.0489075 -0.00709719 -0.0573093 -0.0614261 -0.040146 0.106879 -0.0499022 -0.0488157 0.0795612 -0.00644677 -0.0952248 -0.0641196 -0.0128515 -0.0454105 -0.0958369 -0.0216512 -0.0784594 -0.0834178 0.118816 0.0917508 -0.101553 0.0428931 0.0541491 -0.107108 0.0237325 0.0128285 0.0545852 0.0761102 -0.0731872 -0.0619923 -0.0978035 0.0668819 -0.12379 -0.00679876 0.0181849 -0.0978341 -0.00358494 -0.0238244 0.119298 -0.0326624 -0.102326 -0.114355 0.0853614 0.117385 -0.0982932 -0.0262118 -0.104178 0.0867311 -0.0934801 0.108669 -0.118808 -0.0427859 0.0822318 -0.088009 -0.0975433 0.0810687 -0.0574241 0.00894896 -0.0418983 -0.0191796 -0.0160576 0.088514 0.0795153 -0.114561 -0.0707844 -0.121915 0.00845159 -0.0886441 0.0250104 -0.0155603 0.0278187 0.0461145 -0.0690551 -0.0709681 -0.0708916 -0.0446913 -0.105517 0.108493 -0.00505412 0.0152542 0.00355433 -0.0065386 -0.0227378 0.0845733 -0.0460916 0.0489381 -0.0503384 -0.0752455 -0.11248 -0.0600028 0.0171748 0.0393578 
-0.0252094 0.00447257 0.00406702 0.0719858 0.0491983 0.0610818 0.114707 0.0520065 -0.0239545 0.0270535 -0.0731642 0.123545 0.0578756 -0.0759112 -0.0277881 0.0350651 -0.0982473 -0.01429 0.00410528 0.0427477 0.0656653 -0.0507746 -0.0381794 -0.00837507 -0.105578 0.00044764 -0.0114512 -0.0170906 0.124907 -0.0528023 -0.0038298 -0.107062 -0.0899373 0.0925236 -0.102356 -0.101515 0.100941 -0.11779 -0.00249071 0.026074 -0.0712129 0.0542409 -0.0970383 -0.12291 -0.0702947 0.102142 -0.0405516 0.0566283 0.00865819 0.0395338 0.0628111 -0.0612577 -0.030604 0.0329379 0.102685 0.0659331 -0.067892 0.12027 -0.101905 0.0544552 -0.05835 0.101247 0.121777 0.0525345 -0.0506445 0.0619617 0.0682057 -0.117247 -0.0272984 0.115426 0.0304586 -0.0962272 0.111401 0.0710982 -0.121731 -0.0206794 -0.0265867 0.122542 0.0979259 0.0882615 -0.0522437 0.00666868 -0.104713 -0.0336036 0.116245 -0.0196617 -0.123736 0.0603625 -0.00654625 0.0648083 -0.105784 -0.0695601 -0.0981631 -0.0991349 0.080028 -0.107055 -0.100344 -0.0723301 -0.093021 0.0332975 0.0777707 -0.0402684 0.0465048 0.123575 -0.102058 -0.113192 0.111761 0.0920263 -0.112717 0.0755746 0.0540726 0.0650072 0.101951 -0.0705855 0.0641655 -0.12043 -0.071718 -0.0418753 -0.0264873 0.0960665 -0.0969235 0.0467955 0.0282625 -0.104407 0.0915978 0.0279182 0.0192408 -0.0905265 -0.0324405 0.0100968 -0.105685 0.100061 0.100688 0.0480199 0.0901362 -0.0121704 0.0650531 0.11763 -0.0543174 0.119887 -0.105448 -0.018996 -0.0433751 0.0394497 5.73897e-05 -0.0950794 -0.0354171 -0.0742508 0.104767 0.0624515 0.0432297 -0.0897613 -0.114798 0.0830505 -0.0636911 -0.0239545 0.119107 0.0908249 0.0485632 -0.0372765 0.00708189 -0.0676548 0.095286 0.075873 0.000256341 -0.0602706 -0.0840453 -0.0806708 0.0338255 -0.0697744 0.0621454 -0.0402378 -0.00875767 0.0388299 -0.104859 -0.0690245 0.0720011 0.0851778 0.0808009 0.0938551 0.114783 0.0682363 -0.0542179 0.109832 0.0622066 -0.00547498 0.0928374 -0.0606303 0.117492 -0.121808 -0.0127673 0.0308412 0.0210773 0.124578 -0.0910621 -0.0542562 0.00953817 -0.124011 -0.00841333 -0.0430308 -0.124302 0.050568 -0.0242146 0.00213872 -0.053843 -0.122948 -0.0799974 0.0272295 -0.106389 -0.075169 -0.0196541 0.11424 -0.0476067 -0.0693918 0.00383746 -0.0850936 -0.0468797 -0.0922482 0.0555723 0.0467649 -0.0073344 0.111095 0.116765 -0.0412249 -0.089417 0.0688485 0.0742125 -0.0624285 -0.116405 0.0274055 -0.00675285 0.00639321 0.0617245 0.00575045 0.0396257 -0.122542 0.0530549 0.056085 0.0424186 -0.0188123 -0.0581664 -0.0636987 0.0691316 -0.0398552 -0.114102 0.0356543 -0.000593027 -0.0832571 -0.0219343 0.00411293 -0.0301143 0.0501318 -0.0751996 -0.0643797 -0.0726898 -0.0402608 -0.0237861 0.0542792 -0.0882156 0.0206947 -0.0975051 -0.00741092 0.0594748 0.0908173 -0.0418677 -0.120775 -0.0593295 -0.0394497 -0.122994 0.0628876 -0.0163331 0.0648236 0.0902434 -0.0653286 0.0870525 0.0984692 -0.0436123 -0.0532768 -0.0739294 0.0719246 -0.0461834 0.0183609 0.0673717 -0.0557407 0.117546 -0.0682057 0.123514 0.113735 -0.084734 -0.0766382 0.0822471 -0.0941382 0.119061 0.0518458 0.0388911 0.100237 0.082997 0.0600028 -0.0463976 0.116918 0.00953051 0.0661167 -0.0726668 -0.084558 0.110567 0.0405822 0.110942 -0.0146956 -0.0223169 -0.0911386 -0.0110456 -0.0468721 0.0967781 -0.00916322 -0.086425 -0.0331445 0.045862 0.107636 0.117155 0.116826 0.0753756 0.0749165 0.078666 0.0482112 0.108164 -0.0865169 -0.00833681 0.0421738 0.100306 -0.010992 -0.0622066 -0.0464971 0.0627116 -0.0868535 0.0178252 0.0400848 -0.076577 -0.0719322 0.0530625 0.0718787 0.0378963 0.0965945 0.103275 0.00273557 0.0199984 0.0167234 -0.0875422 0.0970383 -0.0395798 -0.100834 0.0330526 0.0333587 -0.0498793 -0.0403526 -0.0182155 -0.107904 -0.0303668 -0.032494 -0.0612118 0.0416917 0.0736616 -0.085767 0.0895776 0.0723607 -0.0771279 -0.117668 0.109633 0.0603778 0.0997548 0.0782221 -0.0881008 0.0493513 -0.00213107 0.112449 -0.10567 0.0284844 -0.0130963 -0.00466387 0.0527029 0.0553581 -0.115326 -0.0744191 -0.0431532 0.0451963 -0.0658566 0.0860884 -0.0414545 -0.123024 0.0775564 0.0319201 0.112824 0.0906566 -0.0352028 -0.112243 -0.0607604 0.0647394 0.00131231 -0.0692387 0.0180778 -0.0337719 0.105708 0.0240386 0.0228449 0.10254 -0.00728849 -0.0100968 -0.0488004 -0.0443699 -0.0917125 -0.119183 -0.092317 0.0560162 0.116314 -0.0166621 -0.0649919 -0.0497262 0.0694989 0.014642 0.0113211 -0.0669891 0.0773192 0.104943 -0.0450586 0.0477138 -0.115663 0.0165321 0.106221 0.0155603 -0.0193556 -0.0549984 0.0207559 0.115801 0.0577685 0.105555 0.0552739 -0.0930669 -0.0697055 -0.0573246 0.0715726 0.0776942 0.0945744 -0.0671038 -0.110789 0.0546235 -0.0264184 0.0491141 -0.0251864 -0.085216 0.0456554 0.112778 -0.0220338 -0.0174885 -0.111455 0.114293 0.120805 -0.110942 0.0917661 -0.0391283 0.0424645 0.00189386 0.0684276 -0.00816081 0.105379 -0.0181466 -0.0294256 -0.0345371 0.015499 -0.117591 -0.00727319 0.113941 0.013938 0.0535216 0.00212342 -0.0353023 -0.00620956 -0.00102919 0.0519147 0.029066 0.0443699 -0.0282778 -0.0483336 0.0506215 0.0332439 -0.0600334 -0.0441556 -0.0828516 -0.0267627 -0.0408576 -0.00749509 -0.0625815 0.0383019 0.0929675 -0.00570453 0.0675324 -0.0302826 -0.0931205 0.00763283 0.053514 -0.00399815 -0.0604619 -0.115839 0.0748782 -0.000883801 -0.0897613 -0.0116425 0.0949034 0.0533839 0.0797372 -0.0326853 0.00956877 0.0726056 0.020886 0.0254772 0.0545929 -0.063362 -0.0372459 -0.00489343 0.0523815 0.0895547 -0.0322568 -0.10694 -0.0330756 -0.0311932 0.099441 0.0128285 0.0978418 0.0245972 0.100183 -0.0201514 0.122091 -0.0752532 -0.0189577 0.0844661 0.0783828 -0.0420131 0.0432297 0.0581128 -0.0044037 -0.0138539 -0.0216971 0.111493 0.00646973 -0.0507287 0.0795995 -0.0982932 -0.095485 0.03531 -0.0503154 -0.00351607 -0.0145885 0.00494699 -0.00708189 -0.00192447 0.124991 0.0459615 0.0748859 -0.0993415 -0.0620153 -0.110575 -0.11437 0.0977346 -0.0215747 0.0666065 -0.0981784 0.094054 0.0560621 0.0329991 -0.037529 0.114378 -0.104843 0.0471705 0.120415 -0.103267 -0.0348815 0.026426 0.0319661 0.116038 -0.0634921 0.0103722 0.0424798 -0.0263725 0.114064 -0.0323563 -0.0204881 -0.0911539 0.0405898 0.0664687 0.0650225 -0.0406051 0.124876 -0.103321 -0.0416687 -0.0315222 -0.0139304 0.0204346 0.0904041 -0.0616633 0.119765 0.0766917 0.0476755 -0.0417529 0.0768371 0.0762403 -0.0789567 0.0124918 0.0110609 0.115457 -0.120339 0.0993492 0.0400848 -0.120101 0.124279 -0.0363124 0.0134483 -0.0640354 -0.0101044 -0.122963 -0.100987 -0.086777 0.107751 0.0126678 0.121976 0.0888966 -0.122779 0.100344 0.0619694 -0.0272448 -0.0754598 -0.0830352 0.0600793 -0.0975892 0.0438878 0.0411943 -0.124218 -0.000638938 0.041003 -0.0819486 -0.0514173 -0.0114205 -0.00741092 -0.0671115 -0.091131 -0.00112866 0.0703712 0.0273366 -0.0596279 0.0797755 -0.0467573 0.052435 -0.0595743 0.056789 -0.0176186 -0.0923706 0.0744115 -0.0320349 0.070991 -0.103198 -0.0728428 -0.0544475 0.0278263 0.102349 0.0985304 0.0365419 0.0644104 -0.0394038 -0.0643415 0.0794465 -0.120415 0.0991732 0.0129509 -0.119688 0.106006 0.0974898 0.0435282 0.0562534 -0.00101388 -0.00199334 0.0810993 0.0282931 -0.0837316 -0.018491 -0.0416611 0.0509735 -0.0381182 0.0164096 0.0568196 -0.00044764 0.0829204 -0.0868765 0.109733 0.0469868 0.0130734 0.0889425 -0.115334 -0.0366414 0.0893481 -0.0357997 -0.047951 -0.0866087 0.0819486 0.0621377 0.118142 -0.0140069 0.0726898 -0.0308106 -0.00335538 0.077939 0.0204728 -0.0166239 0.0499175 0.123774 0.0432068 0.111791 0.0518535 0.0372383 0.0606303 -0.0175804 0.0732866 0.108669 0.0752838 0.101255 -0.0610282 -0.0300684 -0.013257 -0.00382215 0.000462943 -0.119841 -0.0343917 -0.0528559 -0.0738835 -0.0634921 0.0317059 0.0889655 0.107636 -0.0396869 0.113681 0.0758424 -0.122879 -0.0747175 -0.0133565 0.114623 -0.107935 -0.0829204 0.114355 0.0367485 0.124203 -0.00749509 0.0344376 -0.0259287 0.0574012 -0.0695831 0.0771662 0.0605538 0.0526646 -0.00503881 0.047446 -0.0330067 -0.0455789 -0.0549525 -0.0916437 -0.046566 -0.0861266 -0.081941 0.107606 -0.0162795 0.00513064 -0.0797602 0.0660861 0.0912381 0.0994487 0.0472853 -0.00780117 0.0449667 0.0837392 -0.0771432 0.0275585 0.000218081 -0.117301 -0.0201132 -0.117974 -0.0674635 0.122971 0.0636605 -0.0155679 0.0407046 -0.110215 -0.0126831 0.0352334 -0.0829128 -0.0632626 0.0262424 -0.000432336 -0.0747635 0.0261812 -0.0357308 -0.0716721 0.0754215 0.0145196 -0.0564064 -0.115449 0.0887742 -0.120729 -0.0237861 0.123996 -0.0474001 0.027658 0.115074 0.0488998 -0.106596 0.092493 -0.10205 0.0957528 0.0732331 0.0625203 0.0651373 0.0612348 -0.0611965 -0.0529171 -0.101538 0.033045 0.0364195 0.0670885 -0.047247 -0.0627422 -0.0464359 -0.072728 0.0167922 0.107682 -0.0356007 0.0184603 0.0689939 -0.108011 0.0399853 -0.00848985 0.0827215 -0.0404138 0.0392354 0.0589775 -0.072927 0.0605538 0.0071431 0.0691163 -0.0178023 -0.093572 -0.11714 0.0995558 -0.0461145 -0.0629718 0.051578 0.0239621 0.0167922 0.116 0.0369628 -0.106848 0.0159199 0.0384702 0.0275815 0.0884375 0.103481 -0.0020469 0.0266939 0.0798214 0.0451504 0.0273519 0.065275 0.0122623 0.0714425 0.0716491 0.0286068 -0.0591458 0.00669164 0.0622066 0.0289435 -0.0648083 0.0528329 0.0415004 0.125328 -0.114424 -0.0394956 0.111026 0.0723837 -0.0253242 -0.0353406 0.100627 -0.0950411 -0.104958 -0.0335959 -0.0144507 0.0345983 0.0328843 0.0876494 -0.0534604 -0.0903505 -0.0597886 0.0830811 0.0964261 -0.06754 0.0739294 -0.01605 0.0220644 -0.0813059 0.118135 -0.0403603 -0.0796454 0.0459003 0.118923 0.0162566 -0.0331598 0.0836321 0.00451848 0.0256838 -0.0537129 0.0942147 -0.0409571 -0.0479051 0.0463747 -0.0991426 -0.0191337 0.0171825 0.0798673 0.0107931 0.0908632 -0.0812217 0.0422579 0.0363277 0.0229367 0.103872 0.0224853 0.0597044 0.113031 -0.0520142 0.117079 -0.0182844 -0.0377892 0.104675 0.120492 0.043268 0.100405 0.115801 -0.107261 0.0672033 -0.0331598 0.0509123 -0.0736539 0.108187 -0.0589851 0.0245819 0.00483986 0.0579215 -0.0117649 0.0912917 -0.0119026 -0.109519 -0.104744 -0.116689 0.115357 0.101079 -0.0714349 -0.0105712 0.0971148 0.0110839 0.120928 -0.0732254 -0.0970842 0.0119332 0.0276274 -0.0308642 0.0119638 -0.0955768 -0.0839382 -0.0712283 0.0216359 -0.0924777 -0.0353023 -0.101469 -0.0999307 0.00356964 -0.060615 0.063056 0.0197918 -0.068596 -0.0650455 0.0726209 -0.00406702 0.00758692 -0.113964 0.103122 -0.0117419 0.0724908 -0.0606379 0.0839841 -0.022799 0.00104449 -0.106886 -0.0302903 -0.0790945 0.0778472 0.046191 0.0441709 0.064594 -0.0876264 -0.0920951 0.121632 0.0466502 -0.0389523 0.119726 -0.10684 0.0845809 0.0692387 0.0277957 0.0346519 -0.123568 0.103045 0.0190495 0.0565977 0.00513064 0.0927073 0.0565135 0.0340627 -0.0229903 -0.0573246 0.0163331 -0.0596432 -0.0613649 -0.108577 
0.0321191 -0.0383554 -0.0476832 0.0207177 -0.0700498 0.0295098 0.113536 -0.00248306 -0.0286834 -0.0574241 -0.0961889 0.106259 -0.018445 0.0695142 0.0623367 -0.00927035 0.0839994 -0.00732675 0.104331 -0.0756128 0.117308 0.0994793 0.0349656 0.0253089 -0.0465966 -0.0296016 -0.111638 -0.0220262 0.0499558 0.0751307 0.124111 -0.0563375 -0.05835 0.124371 0.0213375 -0.0439337 0.0218808 0.0871902 0.111462 -0.0116118 0.0565288 -0.0202815 0.022799 -0.0055821 0.0322721 -0.0783675 0.0347896 0.103925 0.0405975 0.0766458 -0.0284615 0.0241687 0.035968 -0.0323946 -0.0284768 0.0844661 -0.0695448 0.0418524 0.0226919 -0.033221 0.11095 -0.0372229 0.0416458 0.0666218 0.0832189 0.013632 -0.106435 0.0229138 0.0929904 0.0893404 -0.122152 0.11313 -0.082117 -0.095615 0.0732331 0.0524963 -0.0687949 -0.0926384 0.0702029 -0.109358 -0.114959 0.0107931 -0.00804603 0.0516928 0.0122546 -0.110376 0.0691469 -0.0540726 -0.105188 -0.0371617 -0.0796684 -0.0283008 -0.0512566 0.0415463 0.0689939 0.0672875 -0.0297929 0.0236101 0.0789873 -0.117699 0.0944749 0.119627 0.101928 -0.00343956 0.116788 -0.0244136 -0.0323793 -0.0212227 0.0193786 -0.0561309 0.103619 -0.0154837 -0.0896389 0.106994 -0.0805636 -0.0694989 -0.0378963 0.0549831 -0.0524963 -0.0642114 0.059207 0.0354707 0.116742 0.0788649 -0.00550558 -0.0417223 -0.0507593 -0.0984845 -0.0769137 -0.117561 0.0768065 -0.0289894 -0.0929675 -0.0281707 0.0860195 -0.0861649 0.0158051 0.037024 0.112143 -0.00350077 0.0658413 -0.0908479 -0.0631172 -0.0856139 -0.0370163 0.0111221 0.001473 0.109121 -0.0183073 0.112503 0.0960206 0.0275432 -0.0610205 -0.104185 -0.114156 -0.10355 0.10733 0.0728581 0.0444694 -0.0752073 0.0664305 -0.0940693 -0.120147 -0.00289627 0.0930516 -0.0979948 0.00220759 0.0382713 0.0352947 0.018621 -0.0978265 0.101683 0.01983 -0.107231 -0.00914026 0.110154 -0.0558402 -0.0432756 -0.0237555 0.0566207 0.096671 -0.0774569 0.118693 0.0928144 0.1073 0.0183532 -0.0018556 0.0590616 0.0758883 -0.046214 0.082094 -0.110743 0.0781839 -0.0053908 -0.0253854 -0.0571104 -0.109289 -0.123698 -0.110643 -0.0601865 -0.101729 -0.0635304 -0.021062 0.0631325 0.0108313 -0.054899 0.0517158 -0.103083 0.0607298 0.0127826 0.0755822 0.0178099 0.0114282 0.0585107 -0.0122164 -0.0986223 -0.0615179 -0.0391895 -0.0373454 -0.0288594 0.119734 -0.117423 -0.0929522 -0.053338 -0.0581204 -0.115548 0.0875116 0.0649154 -0.0279182 0.0724296 -0.0961201 0.0895164 -0.115954 -0.107139 -0.0271147 -0.0761332 0.0977805 0.0773575 0.0231663 0.00236063 0.072927 0.0837392 0.0219879 0.0102498 0.112051 0.0516852 0.0438342 0.124088 0.115388 0.119298 0.0327236 0.0635763 -0.113544 0.101599 -0.0167157 -0.103849 -0.0533609 -0.100887 -0.0628647 -0.108975 -0.0642191 -0.123292 0.0689709 0.104369 0.0760719 0.0762785 0.00808429 0.00117458 0.0183762 0.010816 -0.0735544 0.0493207 0.046543 -0.0905112 0.0316217 0.0750236 -0.0381106 -0.104377 -0.00728849 0.0762556 0.12203 -0.0268086 -0.0475684 0.038562 -0.0439184 0.061801 -0.110659 -0.0634998 -0.0650455 -0.0530549 -0.0135325 -0.0244595 0.0621148 -0.110047 0.0238856 0.000945017 0.111141 0.00917852 -0.0499329 -0.116382 -0.0587326 -0.0709375 -0.0996629 0.060263 0.102242 0.0683435 0.0620536 0.0259746 0.0567278 0.046214 -0.09146 -0.0257221 -0.0012511 0.0909933 -0.0405439 0.123269 0.0858741 -0.0728199 0.0734932 -0.0861343 0.0549066 0.0225006 -0.0615715 -0.106695 0.059383 -0.0783828 0.0269005 -0.0552816 -0.0683435 0.052435 -0.0927685 -0.0645022 -0.0354171 -0.0234953 -0.0495962 -0.0441939 -0.085943 -0.0289129 0.063033 -0.048808 0.0696137 -0.0828133 -0.0170065 -0.0673104 0.0914677 0.124448 0.0329379 0.0668896 -0.0373989 0.0732943 0.098607 0.0740442 0.00794656 -0.0442168 -0.0104258 -0.00509238 0.0668666 -0.00731145 -0.0476602 -0.000715458 0.0363506 -0.0991273 -0.0198454 0.0431379 0.115931 0.00763283 -0.0509888 0.0561539 -0.0369322 0.117683 -0.0235412 -0.0377356 0.104553 -0.113941 0.0237861 -0.0358456 0.0487621 0.0622372 -0.106573 -0.107124 -0.0452805 0.0843054 -0.104193 0.0594595 0.0518535 -0.0862643 0.0778931 -0.0977805 -0.0974362 0.0849941 0.0427859 -0.124348 -0.0241764 0.0877565 0.010839 0.116367 0.10166 0.0885064 -0.113934 0.0781915 0.0330067 0.091307 -0.0128515 -0.056437 -0.0557101 0.0404368 -0.0438266 -0.0205111 0.0755133 -0.0207865 0.00584227 -0.101079 0.109427 0.00668399 0.0152465 -0.087833 -0.00223055 -0.10127 -0.117194 0.0128285 0.066178 -0.10958 -0.0938245 -0.0648236 0.107766 -0.0211691 0.084206 0.088514 0.0590769 -0.00475569 0.119734 -0.112335 -0.037552 0.0628111 0.0213222 0.05369 0.0532615 -0.072751 0.0736922 0.0383784 -0.0700269 0.0364501 0.0750848 -0.0952554 -0.098079 0.0984463 0.121639 0.0738452 -0.037552 -0.000638938 0.0788419 -0.00437309 -0.0160729 0.0646629 0.0201514 -0.0641349 0.092493 0.0289741 0.0265638 -0.0835709 0.0549678 -0.033703 0.122772 0.000692502 -0.104445 0.0385085 -0.00259784 -0.0267015 0.0731872 0.0572328 0.0351875 0.0986376 -0.073256 -0.0202892 0.0489228 0.00430423 -0.00942339 0.0769596 -0.00275853 -0.118655 0.117461 -0.111087 0.0790026 0.0444847 0.014489 -0.0294868 -0.0230286 0.0353635 -0.104093 0.0270611 -0.0928374 0.0819333 0.0855986 -0.0498257 -0.0130657 0.0793011 0.0313386 0.110881 0.0766764 -0.0920033 0.0767147 -0.101033 0.11851 0.0162336 -0.0662315 -0.108302 0.118043 0.0643415 -0.0397175 0.121892 0.0433292 0.0740901 -0.0629565 0.0790868 0.0406893 -0.124708 -0.0554882 -0.0654281 -0.0121092 0.0386768 0.0402378 0.0988977 0.0381412 0.0874121 0.0767147 0.106963 -0.0784747 -0.0656041 0.122183 -0.0428471 -0.088866 0.0869148 0.066002 -0.115181 -0.0331674 0.046742 0.124608 -0.0586943 -0.0361823 -0.0249033 0.0776482 0.122994 0.0264873 0.0359374 -0.0467955 -0.08592 0.113429 -0.0203198 -0.00836742 -0.00649269 -0.119788 -0.100267 0.0996094 -0.0450126 -0.0284308 -0.0397711 -0.116467 0.0560697 0.00262845 0.0272295 -0.0246814 0.0929369 -0.102846 0.010487 -0.0273443 -0.0935031 0.0930822 0.0931282 -0.0245743 -0.117852 0.0120097 -0.0989513 0.0372612 -0.0691546 0.0815584 0.0518611 0.000608331 0.0779849 -0.062528 0.12056 0.0521978 -0.105945 0.10026 -0.0279641 -0.0462676 -0.106488 0.00393693 0.00199334 0.0429925 -0.120767 -0.0776023 -0.0350115 -0.0456937 0.117086 -0.0782145 -0.045158 -0.0914677 0.0672722 0.124777 -0.0434899 0.0202126 0.0554882 -0.0716797 0.0301985 -0.0353329 0.109052 -0.0405209 0.054195 -0.0312315 0.0873739 -0.102571 0.0843437 -0.0479357 0.0960129 -0.0417988 0.0057734 0.0386386 0.048104 -0.0776253 0.0363353 0.0185292 0.120469 -0.00801543 0.00519951 -0.0239315 -0.0346136 0.11499 -0.031109 -0.085063 -0.0702335 0.057669 0.0883533 0.0955921 -0.114148 0.122825 0.0725597 -0.0850859 -0.0716491 0.0301525 0.124195 0.0527641 0.0464971 0.119351 -0.0682976 -0.0519836 0.0170447 -0.115311 -0.0999996 0.0930134 -0.11362 0.0077017 -0.089593 -0.0447219 0.0309254 -0.112136 0.05281 0.0124 -0.0894399 0.0974209 0.125067 -0.0373224 0.0203657 0.00508473 0.0860348 0.0930134 -0.113107 -0.0051842 0.0124153 0.123239 0.124738 0.0288441 -0.00952286 0.00106745 -0.104943 -0.03078 -0.00245245 -0.0243983 0.0385773 -0.0735851 -0.0466196 -0.0896312 -0.0349197 0.0313769 -0.00366146 -0.0721235 0.0762709 -0.0944672 -0.0891262 0.089922 0.0607604 -0.0166315 0.0178023 -0.0479663 0.0740671 -0.0528712 -0.0534374 -0.041202 -0.093748 -0.0612884 0.108264 0.00216933 -0.109404 0.0590463 0.0320349 0.118471 -0.0903122 0.0588933 -0.111929 -0.10016 0.00138883 -0.00310287 0.11199 0.091284 -0.0757888 0.00780117 -0.0624591 -0.0595896 -0.0692234 -0.0434746 0.0328154 0.0393655 0.108884 -0.120721 0.0172743 -0.036496 0.0374296 -0.0185675 0.0665529 -0.0551515 -0.122259 0.0903428 -0.110085 -0.103359 -0.116428 0.0910851 0.0245054 0.0124 -0.0482647 -0.0105788 -0.0147951 0.0167081 -0.0421738 -0.123568 -0.0307035 0.0375137 -0.00857402 -0.0564753 -0.0975739 -0.0735315 -0.0182384 0.0699274 0.0179936 -0.00292687 0.084734 -0.116229 0.015675 0.00706658 0.0685807 0.0724296 -0.0114588 0.107177 0.0721312 0.0762403 -0.0863715 0.0810916 -0.0301066 -0.0379346 -0.107583 0.0973444 -0.0312544 0.106251 -0.0578373 0.0501854 -0.0789644 -0.0356773 0.019853 -0.0421508 -0.0209013 0.0879937 0.0829051 -0.000149213 0.075873 -0.109136 0.116092 -0.0965333 0.104323 0.087634 -0.0712818 0.0221792 0.0357079 0.0513561 -0.0945897 0.0551668 0.0941382 0.0165627 0.00696711 0.00721962 -0.0233576 -0.122649 -0.0400924 0.090427 -0.00555915 -0.00523777 -0.062857 -0.0955309 0.115755 0.0252017 -0.0958523 0.115954 0.0365419 -0.0693918 -0.057822 -0.046895 0.0205876 -0.0657724 -0.0265332 0.00458735 0.119091 0.0723301 -0.0536441 -0.122221 0.0185904 0.117706 -0.0918044 -0.0454718 -0.114561 0.0236484 0.0209931 0.0591382 -0.0575619 -0.0908632 -0.0522284 0.0143589 -0.101997 -0.0152771 -0.0788955 -0.0852849 -0.0246967 -0.0587785 -0.0869836 0.0781227 -0.102242 -0.0441021 -0.030099 0.00971416 0.0856828 0.0802116 -0.113153 0.099816 -0.0840376 -0.0870219 0.031308 0.124501 0.0578067 0.0870448 -0.0139457 0.0258139 -0.0246355 -0.0487545 0.0810075 0.048984 0.117469 -0.00363085 -0.0235872 -0.0532997 -0.114454 -0.103405 0.119267 0.0948192 -0.103213 -0.0371847 -0.0153154 -0.033045 -0.115548 -0.111677 -0.0729652 0.0719246 0.000279296 0.0758118 0.0510653 0.0434057 0.120239 -0.0724143 -0.0809462 -0.0112369 -0.0959747 -0.107544 0.0263036 0.0429696 -0.0235336 -0.103986 0.0850936 -0.0308948 -0.039465 -0.0551668 0.0643874 0.019853 -0.00136587 0.0444694 0.0281324 -0.113322 -0.0126066 -0.0435205 -0.0444694 -0.0400771 -0.0969847 -0.053996 0.0995099 -0.0285456 -0.0441939 0.0363047 0.0576384 -0.00480926 -0.0609899 -0.0751461 0.120813 -0.119841 0.0209549 0.0860424 0.0651067 0.0855068 0.0889884 -0.0532155 -0.0451657 -0.00793125 -0.1058 -0.0714578 -0.122359 -0.0803876 0.114293 -0.0176033 -0.0800816 -0.0846421 0.0643951 -0.0937709 0.0615409 0.0386003 -0.0539578 0.0884681 0.0445612 -0.0290201 0.104491 -0.0562534 -0.102318 -0.080885 -0.0807626 -0.0436047 -0.0823925 -0.112985 0.0809156 0.0837545 0.0367791 0.037047 0.0978877 -0.0662009 -0.113941 -0.0308183 0.0511113 -0.0116578 -0.0167922 -0.111921 -0.0550138 0.00879593 0.0903658 -0.0167922 -0.0941076 -0.0863715 -0.0646399 -0.0113287 0.092317 0.0166774 0.0951406 0.0119179 0.0579368 -0.102257 -0.038057 0.084711 -0.0581587 0.065979 0.118395 0.0271606 -0.0322339 -0.0794618 0.0245284 0.0868229 0.125037 -0.069782 0.0980943 -0.0680374 0.0232811 0.0318589 0.094054 -0.028538 0.0415922 -0.0872132 0.106488 0.0727663 0.00301105 -0.0529783 0.11072 -0.0985917 0.00534489 -0.0747558 0.106228 -0.0348432 -0.109978 0.115418 0.0378198 0.0641425 -0.0260434 0.0387916 0.0512184 -0.00286566 0.0276963 -0.00037112 0.00966825 -0.0225924 -0.122971 0.00135057 0.0815737 0.0921717 0.115747 0.0842442 0.0720164 0.0200979 
0.0382254 -0.0228832 0.0603089 0.0960818 0.0554882 0.0922941 0.0165474 -0.0770667 -0.063714 0.000937365 -0.0436965 -0.118173 -0.113796 -0.0715114 0.0615868 -0.0140987 0.0689097 -0.0970689 0.0705778 -0.0755363 0.0662162 0.08957 0.122405 0.0077323 -0.101132 -0.0460533 0.102846 0.089547 0.0928756 0.0374525 -0.0722 -0.0608292 -0.0940693 -0.0247732 0.0673258 -0.105348 -0.0253777 0.0513944 -0.0171519 0.00347781 -0.0282396 -0.078796 0.0488463 -0.0067452 0.0419978 0.0398858 0.118387 0.0333281 0.115464 -0.0705931 0.0529936 0.116865 0.100413 0.0764239 -0.110383 0.0300684 0.0695372 0.0883839 -0.0497186 -0.00520716 -0.0693841 -0.0990202 0.0717409 -0.0605691 -0.0473082 -0.0765311 0.0158204 -0.00829855 -0.116727 -0.105463 -0.0129586 -0.102617 0.0338408 0.107881 0.0586178 -0.0412326 0.063033 0.0163943 -0.0592223 -0.0568655 0.0885829 -0.120101 -0.101492 0.0593448 0.108172 -0.0361823 -0.0100126 -0.0484407 0.103458 -0.0549984 -0.0627499 0.0588244 0.0672186 0.0525804 0.060087 0.0357614 0.0711823 0.0810916 0.0683358 0.0876876 0.11587 0.0601941 -0.0953243 -0.0846804 -0.119948 -0.0279794 -0.0653822 0.119413 0.117217 0.043796 -0.0883457 0.00835976 0.0494278 0.00973712 0.032142 -0.0814207 0.0282319 0.123637 -0.00259784 -0.0150629 0.0519836 0.0592453 -0.100857 -0.0394191 -0.101216 -0.0153996 0.0994334 0.0471552 -0.0104411 -0.0527182 -0.0905877 0.0633085 -0.0353176 0.101453 0.0109155 -0.0786813 0.106328 -0.0802193 -0.0998925 -0.00653095 0.0825455 -0.0760643 0.0613343 0.0754062 -0.10541 0.064946 -0.100543 0.0414851 0.0108696 0.0423345 -0.114653 -0.103718 0.0526799 -0.0442245 -0.0544092 0.0606685 0.0359374 0.0591229 0.0437883 0.0981708 0.0236254 0.0163561 -0.000661894 -0.0205187 -0.0634692 -0.0603625 -0.0224241 0.0850247 -0.109633 0.0987523 -0.0488922 0.0316829 0.0485785 0.0776789 0.0674941 0.0455483 0.108363 0.0344453 -0.027505 -0.0477673 -0.0835479 0.0761255 0.0269387 0.00802308 0.0785512 -0.0963573 -0.0409954 -0.103014 0.0471781 0.00356199 -0.103971 0.1175 0.0739141 0.0225771 0.0696749 0.0773192 -0.0024448 0.115097 -0.123897 -0.12131 0.000478247 -0.10352 0.107139 0.112771 0.0656959 0.0404521 0.00747214 -0.125113 0.0075104 -0.100688 -0.00542141 0.10743 0.0676471 -0.0534528 -0.0587938 -0.0547842 -0.0619617 -0.0866929 0.0960359 -0.0601635 -0.0367179 -0.0864097 0.0586484 0.0886747 -0.123614 -0.0568732 -0.124494 0.0259593 0.0747328 0.0320196 -0.0731872 0.0831117 0.0374755 -0.0536364 -0.0902357 0.0449591 -0.105631 -0.0332898 0.107445 0.07585 -0.0020469 -0.116467 -0.0167234 -0.109786 -0.00427362 -0.00585757 0.0482724 -0.110758 0.0272831 -0.0125913 0.0353559 0.0875499 0.0266173 0.00242184 0.080051 0.0500782 0.00544437 -0.00194742 -0.0523662 -0.0745109 0.0558402 -0.0356466 -0.00259019 0.0295251 -0.0608981 0.121739 -0.0729959 0.0674023 0.00809195 -0.122313 -0.00972946 -0.0379652 0.0703253 -0.0474689 -0.0203427 0.117607 -0.0549908 -0.0752455 -0.0858282 0.0763321 0.0763704 0.120736 -0.0193633 -0.0828133 -0.0611277 0.0993339 -0.0917278 0.0949417 0.118701 -0.101874 0.0881467 0.0562151 0.0402455 0.0528329 0.104491 0.10694 -0.0199678 0.037376 -0.0018403 0.0980178 0.0889731 -0.087833 -0.0708457 -0.0951559 0.0507134 0.0638747 0.0483106 0.0317212 0.120622 0.0632779 0.00604887 0.0453417 -0.0983927 0.049512 -0.0916896 -0.0617551 0.114783 -0.099617 -0.109052 0.120606 -0.0400312 0.0984845 0.122634 -0.124295 0.0881161 0.0542409 -0.0879554 0.00702067 0.0196617 0.052435 -0.0139457 -0.0158051 0.0306805 0.0757123 0.095439 0.0797678 0.102142 -0.0834255 0.0265791 0.0578144 -0.0636987 0.0998772 -0.0630483 -0.108524 -0.093044 0.0036079 0.0690474 0.0882309 -0.0730494 -0.0286068 0.023128 0.0792552 0.11147 0.0434593 -0.099793 0.0246967 -0.0302903 0.0936408 -0.0148563 -0.0222404 0.00356199 0.0167463 0.0277498 0.00428127 -0.0615562 -0.0100508 0.057118 -0.0350498 -0.0276657 -0.0459921 0.0260664 0.0491524 0.0203045 0.0930287 -0.0297011 0.0155067 0.0810763 -0.045686 -0.01517 -0.0166315 -0.0375061 -0.00725023 -0.0527488 -0.0220568 -0.0120786 -0.0781992 0.045686 0.0704707 -0.0824154 -0.0878407 0.0347973 0.0712359 -0.036496 0.0230592 0.0330756 0.115365 -0.121678 -0.104476 0.0325476 0.0963343 -0.00330947 0.110246 -0.0688638 0.0392201 -0.0412479 -0.032012 0.0168993 0.120844 -0.00262845 0.115816 -0.0466731 -0.0783981 0.0171442 0.0131269 -0.0438878 -0.121448 0.093197 -0.0856216 -0.0462752 0.0112446 0.125121 0.12066 -0.0791174 -0.107078 0.0174503 -0.0944672 -0.0646399 -0.0467267 -0.122825 -0.100137 -0.112503 0.0617628 0.0953243 0.060791 -0.0996017 -0.00902548 0.0508128 0.0182767 -0.114301 -0.0342616 0.0676242 -0.0577455 0.0450203 -0.1204 0.0981784 -0.0520218 -0.0101044 -0.102188 0.0143895 -0.0564676 0.0454105 0.0254542 -0.00568923 -0.0568808 -0.0971072 0.106091 0.118816 -0.00802308 -0.0578067 0.086272 -0.0772886 -0.022799 -0.112679 0.00538315 0.0238014 -0.025217 0.115962 0.0476143 0.0549755 -0.0972602 0.035991 0.115533 0.0376209 -0.117102 0.103122 0.0142747 -0.0770361 0.0810381 -0.113062 -0.0434134 -0.0737304 -0.0762785 0.0131346 -0.0297011 -0.10909 -0.0252706 -0.112289 -0.0755746 0.0564753 0.100895 0.0339173 0.00914792 -0.0365572 -0.0314457 -0.0552051 -0.124524 0.125366 0.0135172 0.0312391 0.0310555 -0.058679 -0.100757 0.0730035 -0.0633085 -0.00994372 -0.122313 -0.00562802 -0.0894858 -0.0780921 0.0613649 -0.114814 0.0305581 0.0897996 0.0123464 0.074289 -0.116826 -0.109236 -0.0747252 -0.0688868 0.120897 -0.0437883 0.0429466 -0.0363353 -0.101622 -0.091284 0.0832265 0.121555 -0.0740977 0.0772197 0.0797219 -0.124639 -0.0565671 -0.108532 -0.0983085 0.00157248 0.104254 0.0938321 0.10948 0.11049 0.0856522 -0.0152389 -0.0937174 0.120713 -0.100451 0.0999154 0.108218 -0.0317365 -0.0183073 0.0305428 0.123529 -0.0130045 0.0188889 0.0300301 0.122428 0.00951521 0.110682 -0.120583 -0.104178 -0.12408 -0.0361134 -0.106504 0.0682976 -0.0990431 -0.0328843 0.0478668 -0.0784594 -0.0245972 0.0943831 0.10254 0.00106745 0.114477 -0.0164632 -0.0378963 0.00137353 -0.124471 -0.100321 -0.111508 0.102303 -0.0405516 -0.088514 0.0569956 0.0128821 -0.0925849 -0.000417032 0.0746257 -0.116413 -0.0283773 -0.0707232 -0.0427171 0.101453 0.068749 0.102265 -0.0747099 0.117033 -0.117301 -0.0367868 0.0123158 0.0877641 0.0463594 -0.0604084 0.106733 -0.0296322 -0.0564064 -0.019524 -0.0839382 0.0975739 0.0849482 -0.0795383 -0.0249492 -0.122259 0.0850171 -0.000118605 -0.0715573 -0.0935643 -0.0559932 -0.0024448 -0.0271071 0.116543 -0.0756511 0.0712971 -0.0658872 0.00831385 -0.0453799 0.00721962 0.108363 0.105149 0.120239 -0.0269693 0.09964 -0.105333 -0.0863332 -0.0220262 0.0323946 -0.0740059 0.0600793 -0.119244 0.120331 0.0633085 0.0779849 -0.093748 -0.0376209 0.0620612 -0.0958599 0.00218463 0.0654893 -0.0158969 -0.00415119 0.00220759 -0.0553351 0.0991273 -0.0344147 -0.0703177 0.0640125 0.0450968 -0.0600487 -0.0987294 -0.0367791 -0.0959594 -0.0662239 -0.0326241 0.084007 -0.0429696 -0.0730494 0.101002 -0.108294 0.0194551 -0.0532844 -0.08038 0.0572099 -0.115418 0.0847416 0.106994 0.0409112 0.0212457 0.00246776 0.104683 0.097352 0.04186 0.110858 0.0577991 0.0452116 0.1043 -0.0340168 0.0805177 0.0604313 0.00581931 0.0785512 0.0617781 0.0995175 -0.121264 -0.0792934 0.0972679 -0.048831 0.00422005 0.0831959 0.00423536 0.0337796 -0.10707 0.112763 0.0110686 -0.077962 -0.0843743 -0.0172666 0.0752685 -0.0141906 0.116413 -0.013785 -0.0783446 0.115548 -0.00679876 -0.0156291 0.0126908 -0.0854838 -0.104285 0.0704324 0.0264413 0.0991196 0.0527564 0.0716262 0.0687567 -0.0406128 -0.115059 -0.0502772 -0.0582658 -0.101576 -0.116857 0.0268086 -0.060416 -0.109037 -0.0669814 0.0880243 -0.00141944 0.121724 -0.123973 0.0490758 -0.0800357 -0.0908555 -0.0513867 -0.0134483 -0.000179821 -0.0783216 0.11991 -0.0379269 0.0208554 0.0309943 -0.0185981 -0.0541261 -0.0482418 0.0659178 -0.0357461 0.0199907 0.0585183 0.0741207 0.0212763 -0.0869607 0.0122164 0.0838769 0.0597044 0.0525345 -0.0369398 -0.0152389 0.0169606 -0.0727204 -0.0941688 0.0210161 0.104369 -0.0424416 0.05558 0.00920913 0.114033 -0.0925619 0.0631554 0.0303898 0.0690704 0.0370393 0.0403449 -0.0437195 0.109327 0.034935 -0.029724 0.0582123 -0.113084 -0.0773881 -0.0284844 0.0582429 -0.122948 -0.0229138 -0.00255958 0.125006 0.114401 0.102532 -0.0652138 -0.0801045 0.0142059 -0.0404291 -0.0632626 -0.0515245 0.0537971 0.032318 -0.0515092 0.0689862 -0.0526876 -0.0729346 0.0158587 -0.0858282 0.106787 0.100497 0.0840835 0.0904041 0.0196311 0.051578 0.125274 -0.11652 0.0848946 -0.0726745 0.0537588 0.113957 0.0366873 0.081084 0.0170753 0.101561 -0.00401345 0.0170906 0.0204652 -0.111233 0.0370623 0.0359604 -0.0260511 -0.0572787 0.047247 -0.00584992 0.122902 -0.0423421 0.0289588 -0.00358494 -0.0576537 0.00932391 0.115227 -0.058197 -0.0308948 -0.0833413 -0.0538966 -0.016027 -0.111967 0.0622372 -0.0630942 0.0801045 0.104652 0.0281554 0.0738223 -0.0629947 0.120293 0.0541414 0.0215058 0.0361134 -0.0608063 -0.0807702 -0.0606992 0.0310096 0.0803341 0.00320234 0.0236637 -0.0365419 -0.0958523 -0.118663 -0.0713048 0.0899449 0.107254 -0.0392737 0.094077 0.000669546 0.068749 0.00745683 0.114684 0.0945591 -0.0869913 0.0728658 -0.0578373 0.074312 -0.0215594 -0.0753067 0.0557254 0.0325706 0.0349809 -0.015851 0.124042 0.046895 -0.0336265 0.125328 0.0683205 0.093549 -0.00249836 0.0901975 0.0395721 -0.041202 -0.0738835 -0.11841 -0.0393885 -0.0451045 -0.0475225 -0.124432 -0.0901668 0.113459 0.0590081 0.0184757 -0.00872706 -0.0829511 0.0319201 0.106795 -0.0347973 0.00293453 0.0857058 0.0135937 0.0418371 -0.123981 -0.080005 0.10456 0.103489 0.0856216 -0.0692158 -0.0449132 0.0114512 -0.105601 -0.101981 0.124784 0.0182461 -0.103152 0.12532 0.0861802 -0.0705013 0.11424 0.103083 0.0726056 0.0479893 0.0146803 -0.0785435 -0.0576996 0.0368786 0.0116348 0.0059647 0.0655122 -0.0119179 0.107851 -0.111103 0.0896006 0.0837698 0.00206985 0.114408 0.0876723 -0.122741 0.0866087 -0.0332133 -0.0543404 0.100443 -0.119849 -0.116069 -0.0111068 0.000531811 0.093924 -0.00833681 -0.0431685 -0.116964 0.111493 0.110682 0.0791786 0.108631 0.0892104 -0.0567431 0.108463 -0.0475301 -0.0409495 0.0272984 0.0620995 0.110406 0.0275662 -0.0917049 0.0336571 -0.0254466 -0.0339938 -0.116191 0.0681139 -0.0182155 -0.117699 0.0128744 -0.0317977 -0.0930516 0.0193862 -0.0132341 0.0267321 -0.105945 0.0122317 0.0728275 0.0444234 0.111822 0.0151547 -0.0421814 -0.115043 0.0601023 0.118556 -0.0350574 -0.0702947 -0.0673564 0.115755 -0.0331827 -0.0803035 0.0478209 0.0509659 -0.033198 0.0636146 0.000845541 0.0988059 -0.0722766 -0.109427 0.0680833 -0.0444847 0.0623596 -0.0199601 -0.00221524 0.0534757 -0.0832112 0.04186 -0.0252935 0.0150858 -0.0315835 -0.01693 
